{"learner":{"attributes":{"scikit_learn":"{\"_estimator_type\": \"regressor\"}"},"feature_names":["Month","Day_of_month","Day_of_week","pressure_height","Wind_speed","Humidity","Temperature_Sandburg","Temperature_ElMonte","Inversion_base_height","Pressure_gradient","Inversion_temperature","Visibility"],"feature_types":["int","int","int","int","int","int","int","float","int","int","float","int"],"gradient_booster":{"model":{"gbtree_model_param":{"num_parallel_tree":"1","num_trees":"50"},"iteration_indptr":[0,1,2,3,4,5,6,7,8,9,10,11,12,13,14,15,16,17,18,19,20,21,22,23,24,25,26,27,28,29,30,31,32,33,34,35,36,37,38,39,40,41,42,43,44,45,46,47,48,49,50],"tree_info":[0,0,0,0,0,0,0,0,0,0,0,0,0,0,0,0,0,0,0,0,0,0,0,0,0,0,0,0,0,0,0,0,0,0,0,0,0,0,0,0,0,0,0,0,0,0,0,0,0,0],"trees":[{"base_weights":[1.9014979E-7,-4.226854E0,1.0214897E1,-5.4600377E0,-1.3347769E0,5.2855477E0,1.2089172E1,-1.3198751E0,-3.5091972E0,9.385804E-1,-2.6605258E0,3.6744962E0,1.7594632E0,-4.2269135E-1,1.2583599E1,-3.1913802E-1,-1.4034388E0,7.202434E-1,-3.0170986E-1,-2.8442678E-1,-8.2564443E-1,8.1775564E-1,2.1374486E-1,2.6578634E0,8.28963E-1],"categories":[],"categories_nodes":[],"categories_segments":[],"categories_sizes":[],"default_left":[0,0,0,0,0,0,0,0,0,0,0,0,0,0,0,0,0,0,0,0,0,0,0,0,0],"id":0,"left_children":[1,3,5,7,9,11,13,-1,15,17,19,21,-1,-1,23,-1,-1,-1,-1,-1,-1,-1,-1,-1,-1],"loss_changes":[7.081008E3,4.0642188E2,3.7957227E2,1.5687744E2,1.1099756E2,5.253888E1,2.6534814E2,0E0,2.036052E2,9.665406E1,3.5933517E1,8.584503E0,0E0,0E0,1.4144678E2,0E0,0E0,0E0,0E0,0E0,0E0,0E0,0E0,0E0,0E0],"parents":[2147483647,0,0,1,1,2,2,3,3,4,4,5,5,6,6,8,8,9,9,10,10,11,11,14,14],"right_children":[2,4,6,8,10,12,14,-1,16,18,20,22,-1,-1,24,-1,-1,-1,-1,-1,-1,-1,-1,-1,-1],"split_conditions":[6.314E1,5.9E1,7.25E1,1.7E1,1.6E1,7.5E1,6.728E1,-1.3198751E0,1.1E1,1.2E2,5.77E3,3.33E3,1.7594632E0,-4.2269135E-1,1.2E2,-3.1913802E-1,-1.4034388E0,7.202434E-1,-3.0170986E-1,-2.8442678E-1,-8.2564443E-1,8.1775564E-1,2.1374486E-1,2.6578634E0,8.28963E-1],"split_indices":[7,6,10,1,1,5,7,0,0,11,3,8,0,0,11,0,0,0,0,0,0,0,0,0,0],"split_type":[0,0,0,0,0,0,0,0,0,0,0,0,0,0,0,0,0,0,0,0,0,0,0,0,0],"sum_hessian":[1.62E2,1.15E2,4.7E1,8E1,3.5E1,1.4E1,3.3E1,4.9E1,3.1E1,1.3E1,2.2E1,1.1E1,3E0,1E0,3.2E1,2.1E1,1E1,6E0,7E0,1.3E1,9E0,9E0,2E0,2.9E1,3E0],"tree_param":{"num_deleted":"0","num_feature":"12","num_nodes":"25","size_leaf_vector":"1"}},{"base_weights":[1.3012901E-2,-3.413673E0,8.293899E0,-1.7420771E0,-4.9990773E0,5.936231E0,1.1580011E1,-4.482314E0,-1.8189149E-1,-1.1593245E0,-3.2798703E0,-9.863332E-1,6.465926E0,1.3245564E1,5.7637196E0,2.2771645E-2,-9.9442285E-1,-6.438446E-1,2.3495407E-1,-7.0094794E-1,1.2175131E-1,8.452225E-2,-3.804222E-1,9.1529894E-1,1.7939824E0,7.006964E-1,2.9154575E0,3.1941232E-1,1.2555277E0],"categories":[],"categories_nodes":[],"categories_segments":[],"categories_sizes":[],"default_left":[0,0,0,0,0,0,0,0,0,0,0,0,0,0,0,0,0,0,0,0,0,0,0,0,0,0,0,0,0],"id":1,"left_children":[1,3,5,7,9,11,13,15,17,-1,19,21,23,25,27,-1,-1,-1,-1,-1,-1,-1,-1,-1,-1,-1,-1,-1,-1],"loss_changes":[4.653599E3,2.9870923E2,3.031416E2,2.4715082E2,6.1885498E1,1.16382935E2,1.0771582E2,4.784146E1,1.6036584E2,0E0,2.0496628E1,4.674694E0,9.142041E1,1.3056128E2,2.822174E0,0E0,0E0,0E0,0E0,0E0,0E0,0E0,0E0,0E0,0E0,0E0,0E0,0E0,0E0],"parents":[2147483647,0,0,1,1,2,2,3,3,4,4,5,5,6,6,7,7,8,8,10,10,11,11,12,12,13,13,14,14],"right_children":[2,4,6,8,10,12,14,16,18,-1,20,22,24,26,28,-1,-1,-1,-1,-1,-1,-1,-1,-1,-1,-1,-1,-1,-1],"split_conditions":[6.314E1,3.644E3,7.106E1,-9E0,5.5E1,3.93E2,8E1,4E0,5.576E1,-1.1593245E0,2.5E2,1E1,7.5E1,3E0,3.8E1,2.2771645E-2,-9.9442285E-1,-6.438446E-1,2.3495407E-1,-7.0094794E-1,1.2175131E-1,8.452225E-2,-3.804222E-1,9.1529894E-1,1.7939824E0,7.006964E-1,2.9154575E0,3.1941232E-1,1.2555277E0],"split_indices":[7,8,7,9,6,8,11,11,10,0,11,0,5,1,5,0,0,0,0,0,0,0,0,0,0,0,0,0,0],"split_type":[0,0,0,0,0,0,0,0,0,0,0,0,0,0,0,0,0,0,0,0,0,0,0,0,0,0,0,0,0],"sum_hessian":[1.62E2,1.15E2,4.7E1,5.7E1,5.8E1,2.9E1,1.8E1,2E1,3.7E1,3.8E1,2E1,2E0,2.7E1,1.3E1,5E0,2E0,1.8E1,1.1E1,2.6E1,1.9E1,1E0,1E0,1E0,1.7E1,1E1,2E0,1.1E1,1E0,4E0],"tree_param":{"num_deleted":"0","num_feature":"12","num_nodes":"29","size_leaf_vector":"1"}},{"base_weights":[3.792826E-2,-2.852916E0,6.628295E0,-4.189987E0,-1.7040173E0,4.693983E0,9.537225E0,-4.5475864E0,-2.894533E0,-4.407715E0,-5.24589E-1,-1.3663712E-1,5.388952E0,6.891537E-1,1.0464012E1,-3.4012425E-1,-9.3110275E-1,-6.4029574E-1,1.09576225E-1,-1.2826157E-1,-9.162664E-1,-5.1850337E-1,6.1189163E-2,3.509924E-1,-2.0965548E-1,1.137403E0,-2.658759E-1,5.7319087E-1,2.2689476E0],"categories":[],"categories_nodes":[],"categories_segments":[],"categories_sizes":[],"default_left":[0,0,0,0,0,0,0,0,0,0,0,0,0,0,0,0,0,0,0,0,0,0,0,0,0,0,0,0,0],"id":2,"left_children":[1,3,5,7,9,11,13,15,17,19,21,23,25,-1,27,-1,-1,-1,-1,-1,-1,-1,-1,-1,-1,-1,-1,-1,-1],"loss_changes":[3.124341E3,1.6798242E2,2.3657129E2,1.0926025E1,1.985833E2,1.0816449E2,7.120764E1,4.066101E0,1.6546913E1,9.486237E0,7.808004E1,1.0461976E1,6.362982E1,0E0,7.45553E1,0E0,0E0,0E0,0E0,0E0,0E0,0E0,0E0,0E0,0E0,0E0,0E0,0E0,0E0],"parents":[2147483647,0,0,1,1,2,2,3,3,4,4,5,5,6,6,7,7,8,8,9,9,10,10,11,11,12,12,14,14],"right_children":[2,4,6,8,10,12,14,16,18,20,22,24,26,-1,28,-1,-1,-1,-1,-1,-1,-1,-1,-1,-1,-1,-1,-1,-1],"split_conditions":[6.296E1,5.27E1,7.106E1,5.5E1,-2.2E1,-1.2E1,6.2E1,6E1,2.5E2,4.64E1,5.144E1,8E0,8.4E1,6.891537E-1,7.502E1,-3.4012425E-1,-9.3110275E-1,-6.4029574E-1,1.09576225E-1,-1.2826157E-1,-9.162664E-1,-5.1850337E-1,6.1189163E-2,3.509924E-1,-2.0965548E-1,1.137403E0,-2.658759E-1,5.7319087E-1,2.2689476E0],"split_indices":[7,10,7,6,9,9,5,11,11,7,7,1,6,0,10,0,0,0,0,0,0,0,0,0,0,0,0,0,0],"split_type":[0,0,0,0,0,0,0,0,0,0,0,0,0,0,0,0,0,0,0,0,0,0,0,0,0,0,0,0,0],"sum_hessian":[1.62E2,1.13E2,4.9E1,5.1E1,6.2E1,3.1E1,1.8E1,3.8E1,1.3E1,1.8E1,4.4E1,4E0,2.7E1,3E0,1.5E1,2E0,3.6E1,1.2E1,1E0,1E0,1.7E1,1.2E1,3.2E1,1E0,3E0,2.6E1,1E0,2E0,1.3E1],"tree_param":{"num_deleted":"0","num_feature":"12","num_nodes":"29","size_leaf_vector":"1"}},{"base_weights":[3.7952326E-2,-2.0037827E0,6.366382E0,-2.8930693E0,-2.6133466E-1,7.1848207E0,1.4816269E0,-3.1719092E-1,-3.0922544E0,-2.8691804E0,1.5541484E0,1.0486145E0,7.744821E0,4.797411E-2,5.089746E-1,2.6088142E-1,-3.7189826E-1,-6.8946916E-1,-3.6910832E-1,-7.5284296E-1,-2.5597215E-1,1.4820866E-1,9.641962E-1,3.047441E-1,-3.7670325E-2,5.3661495E-1,1.7230076E0,2.5683785E-2,-1.9336034E-2],"categories":[],"categories_nodes":[],"categories_segments":[],"categories_sizes":[],"default_left":[0,0,0,0,0,0,0,0,0,0,0,0,0,0,0,0,0,0,0,0,0,0,0,0,0,0,0,0,0],"id":3,"left_children":[1,3,5,7,9,11,13,15,17,19,21,23,25,27,-1,-1,-1,-1,-1,-1,-1,-1,-1,-1,-1,-1,-1,-1,-1],"loss_changes":[2.118876E3,1.9138632E2,1.4926965E2,4.109149E1,2.0804262E2,1.08712036E2,1.0548192E1,1.993247E1,2.7282776E1,2.0787262E1,6.549068E1,2.6377554E0,1.13434814E2,5.8962304E-2,0E0,0E0,0E0,0E0,0E0,0E0,0E0,0E0,0E0,0E0,0E0,0E0,0E0,0E0,0E0],"parents":[2147483647,0,0,1,1,2,2,3,3,4,4,5,5,6,6,7,7,8,8,9,9,10,10,11,11,12,12,13,13],"right_children":[2,4,6,8,10,12,14,16,18,20,22,24,26,28,-1,-1,-1,-1,-1,-1,-1,-1,-1,-1,-1,-1,-1,-1,-1],"split_conditions":[6.728E1,5.63E1,5.6E1,6E1,-8E0,4E0,7.3E1,5E0,5.7E1,-2.2E1,2.5E1,3E0,-1E1,4E0,5.089746E-1,2.6088142E-1,-3.7189826E-1,-6.8946916E-1,-3.6910832E-1,-7.5284296E-1,-2.5597215E-1,1.4820866E-1,9.641962E-1,3.047441E-1,-3.7670325E-2,5.3661495E-1,1.7230076E0,2.5683785E-2,-1.9336034E-2],"split_indices":[7,7,9,11,9,1,5,0,6,9,1,1,9,4,0,0,0,0,0,0,0,0,0,0,0,0,0,0,0],"split_type":[0,0,0,0,0,0,0,0,0,0,0,0,0,0,0,0,0,0,0,0,0,0,0,0,0,0,0,0,0],"sum_hessian":[1.62E2,1.23E2,3.9E1,8.1E1,4.2E1,3.3E1,6E0,6E0,7.5E1,1.7E1,2.5E1,3E0,3E1,3E0,3E0,3E0,3E0,5.7E1,1.8E1,1E1,7E0,2.1E1,4E0,2E0,1E0,5E0,2.5E1,2E0,1E0],"tree_param":{"num_deleted":"0","num_feature":"12","num_nodes":"29","size_leaf_vector":"1"}},{"base_weights":[4.2484757E-2,-1.6116229E0,5.1691566E0,-2.3287187E0,-2.0665869E-1,5.822171E0,1.2589191E0,-3.3723657E0,-1.8387203E0,-2.35139E0,1.2861035E0,6.909379E0,3.2531757E0,3.9966345E-2,2.1631422E0,-4.5262195E-2,-6.988043E-1,-2.2267643E-1,-6.322388E-1,4.5706496E-2,-5.3763264E-1,1.1991429E-1,8.099248E-1,1.8113194E-1,1.5529308E0,8.697166E-2,9.215955E-1,2.225933E-2,-1.7402459E-2,5.741774E-1,1.9405302E-1],"categories":[],"categories_nodes":[],"categories_segments":[],"categories_sizes":[],"default_left":[0,0,0,0,0,0,0,0,0,0,0,0,0,0,0,0,0,0,0,0,0,0,0,0,0,0,0,0,0,0,0],"id":4,"left_children":[1,3,5,7,9,11,13,15,17,19,21,23,25,27,29,-1,-1,-1,-1,-1,-1,-1,-1,-1,-1,-1,-1,-1,-1,-1,-1],"loss_changes":[1.3905818E3,1.2444797E2,9.480798E1,3.5732758E1,1.4069179E2,7.2485596E1,7.6289835E0,8.777679E0,5.211635E1,1.6253624E1,4.690035E1,1.1106909E2,4.3815308E1,4.591388E-2,5.914898E-1,0E0,0E0,0E0,0E0,0E0,0E0,0E0,0E0,0E0,0E0,0E0,0E0,0E0,0E0,0E0,0E0],"parents":[2147483647,0,0,1,1,2,2,3,3,4,4,5,5,6,6,7,7,8,8,9,9,10,10,11,11,12,12,13,13,14,14],"right_children":[2,4,6,8,10,12,14,16,18,20,22,24,26,28,30,-1,-1,-1,-1,-1,-1,-1,-1,-1,-1,-1,-1,-1,-1,-1,-1],"split_conditions":[6.728E1,5.63E1,5.6E1,4.208E1,-8E0,8E1,7.3E1,4.3E1,9E0,4E0,2.5E1,4E0,8.3E2,4E0,1E1,-4.5262195E-2,-6.988043E-1,-2.2267643E-1,-6.322388E-1,4.5706496E-2,-5.3763264E-1,1.1991429E-1,8.099248E-1,1.8113194E-1,1.5529308E0,8.697166E-2,9.215955E-1,2.225933E-2,-1.7402459E-2,5.741774E-1,1.9405302E-1],"split_indices":[7,7,9,10,9,11,5,5,0,11,1,1,8,4,1,0,0,0,0,0,0,0,0,0,0,0,0,0,0,0,0],"split_type":[0,0,0,0,0,0,0,0,0,0,0,0,0,0,0,0,0,0,0,0,0,0,0,0,0,0,0,0,0,0,0],"sum_hessian":[1.62E2,1.23E2,3.9E1,8.1E1,4.2E1,3.3E1,6E0,2.4E1,5.7E1,1.7E1,2.5E1,2.2E1,1.1E1,3E0,3E0,1E0,2.3E1,3.8E1,1.9E1,2E0,1.5E1,2.1E1,4E0,3E0,1.9E1,4E0,7E0,2E0,1E0,1E0,2E0],"tree_param":{"num_deleted":"0","num_feature":"12","num_nodes":"31","size_leaf_vector":"1"}},{"base_weights":[4.84335E-2,-1.539447E0,3.6678324E0,-3.7768957E-1,-2.092789E0,2.3872852E0,5.6314993E0,-1.9291892E0,8.383642E-1,-2.9383783E0,-1.7850095E0,-4.731516E-1,2.8128176E0,3.5962507E-1,6.237874E0,-5.10662E-1,-1.3456585E-1,-8.3933026E-2,5.404295E-1,-6.3960326E-1,-2.3304644E-1,-5.455311E-1,-2.1213816E-1,1.06938556E-1,-1.7175718E-1,8.845968E-1,3.0215386E-1,2.3150109E-1,1.3761925E0],"categories":[],"categories_nodes":[],"categories_segments":[],"categories_sizes":[],"default_left":[0,0,0,0,0,0,0,0,0,0,0,0,0,0,0,0,0,0,0,0,0,0,0,0,0,0,0,0,0],"id":5,"left_children":[1,3,5,7,9,11,13,15,17,19,21,23,25,-1,27,-1,-1,-1,-1,-1,-1,-1,-1,-1,-1,-1,-1,-1,-1],"loss_changes":[9.4243555E2,7.2494385E1,1.12284424E2,7.331223E1,1.4794586E1,4.028154E1,3.2948303E1,1.161211E1,5.2717255E1,5.020706E0,3.7390594E1,2.4024832E0,5.202031E1,0E0,4.4309204E1,0E0,0E0,0E0,0E0,0E0,0E0,0E0,0E0,0E0,0E0,0E0,0E0,0E0,0E0],"parents":[2147483647,0,0,1,1,2,2,3,3,4,4,5,5,6,6,7,7,8,8,9,9,10,10,11,11,12,12,14,14],"right_children":[2,4,6,8,10,12,14,16,18,20,22,24,26,-1,28,-1,-1,-1,-1,-1,-1,-1,-1,-1,-1,-1,-1,-1,-1],"split_conditions":[6.296E1,2.047E3,7.106E1,-8E0,2.7E1,-1.2E1,6.2E1,5.9E1,2.4E1,5E0,4.208E1,8E0,7.5E1,3.5962507E-1,7.502E1,-5.10662E-1,-1.3456585E-1,-8.3933026E-2,5.404295E-1,-6.3960326E-1,-2.3304644E-1,-5.455311E-1,-2.1213816E-1,1.06938556E-1,-1.7175718E-1,8.845968E-1,3.0215386E-1,2.3150109E-1,1.3761925E0],"split_indices":[7,8,7,9,5,9,5,6,1,2,10,1,6,0,10,0,0,0,0,0,0,0,0,0,0,0,0,0,0],"split_type":[0,0,0,0,0,0,0,0,0,0,0,0,0,0,0,0,0,0,0,0,0,0,0,0,0,0,0,0,0],"sum_hessian":[1.62E2,1.13E2,4.9E1,3.7E1,7.6E1,3.1E1,1.8E1,1.6E1,2.1E1,1.8E1,5.8E1,4E0,2.7E1,3E0,1.5E1,1E1,6E0,1.3E1,8E0,1.5E1,3E0,2.4E1,3.4E1,1E0,3E0,1.1E1,1.6E1,2E0,1.3E1],"tree_param":{"num_deleted":"0","num_feature":"12","num_nodes":"29","size_leaf_vector":"1"}},{"base_weights":[4.6539504E-2,-1.0704811E0,3.5081398E0,-1.5275818E0,4.5609422E-2,3.9799666E0,7.152466E-1,-1.1829671E0,-2.45006E0,-1.3932073E0,1.4820256E0,6.1764717E-3,4.364328E0,-3.868561E-2,1.4451096E0,-2.8572458E-1,1.55323E-1,-1.0940724E-1,-5.023391E-1,1.2328835E-1,-3.6170882E-1,6.218063E-1,9.8388724E-2,5.6468327E-2,-8.22319E-2,2.2313976E-1,9.892306E-1,3.7914047E-1,1.3260226E-1],"categories":[],"categories_nodes":[],"categories_segments":[],"categories_sizes":[],"default_left":[0,0,0,0,0,0,0,0,0,0,0,0,0,0,0,0,0,0,0,0,0,0,0,0,0,0,0,0,0],"id":6,"left_children":[1,3,5,7,9,11,13,15,17,19,21,23,25,-1,27,-1,-1,-1,-1,-1,-1,-1,-1,-1,-1,-1,-1,-1,-1],"loss_changes":[6.340241E2,6.3330246E1,4.98638E1,2.5076813E1,7.8534134E1,5.1903687E1,4.92198E0,3.288073E1,1.3237762E0,1.69738E1,2.9077042E1,5.771021E-1,5.3075745E1,0E0,1.5275955E-1,0E0,0E0,0E0,0E0,0E0,0E0,0E0,0E0,0E0,0E0,0E0,0E0,0E0,0E0],"parents":[2147483647,0,0,1,1,2,2,3,3,4,4,5,5,6,6,7,7,8,8,9,9,10,10,11,11,12,12,14,14],"right_children":[2,4,6,8,10,12,14,16,18,20,22,24,26,-1,28,-1,-1,-1,-1,-1,-1,-1,-1,-1,-1,-1,-1,-1,-1],"split_conditions":[6.728E1,5.702E1,5.6E1,7E0,-5E0,4E0,7.3E1,3E2,1.318E3,2E0,7E0,3E0,6.2E1,-3.868561E-2,1E1,-2.8572458E-1,1.55323E-1,-1.0940724E-1,-5.023391E-1,1.2328835E-1,-3.6170882E-1,6.218063E-1,9.8388724E-2,5.6468327E-2,-8.22319E-2,2.2313976E-1,9.892306E-1,3.7914047E-1,1.3260226E-1],"split_indices":[7,7,9,4,9,1,5,11,8,2,0,1,5,0,1,0,0,0,0,0,0,0,0,0,0,0,0,0,0],"split_type":[0,0,0,0,0,0,0,0,0,0,0,0,0,0,0,0,0,0,0,0,0,0,0,0,0,0,0,0,0],"sum_hessian":[1.62E2,1.23E2,3.9E1,8.7E1,3.6E1,3.3E1,6E0,6.5E1,2.2E1,1.8E1,1.8E1,3E0,3E1,3E0,3E0,5.8E1,7E0,1E0,2.1E1,3E0,1.5E1,6E0,1.2E1,2E0,1E0,5E0,2.5E1,1E0,2E0],"tree_param":{"num_deleted":"0","num_feature":"12","num_nodes":"29","size_leaf_vector":"1"}},{"base_weights":[4.5816116E-2,-8.7656707E-1,2.8118482E0,-2.6464385E-1,-1.5146757E0,4.144749E0,1.6950122E0,-1.369917E0,3.4692588E-1,-1.1714793E0,-2.5586438E0,2.5395818E0,6.93182E0,-2.7366462E-1,2.2274885E0,-9.527793E-2,-4.0412012E-1,-4.0595087E-1,1.4459144E-1,-1.3159488E-1,-4.4461837E-1,-5.516619E-1,3.70121E-3,1.4247786E-1,8.007955E-1,2.7430916E-1,1.5539131E0,-4.3935227E-1,2.4741483E-1,5.386437E-1,1.5390734E-1],"categories":[],"categories_nodes":[],"categories_segments":[],"categories_sizes":[],"default_left":[0,0,0,0,0,0,0,0,0,0,0,0,0,0,0,0,0,0,0,0,0,0,0,0,0,0,0,0,0,0,0],"id":7,"left_children":[1,3,5,7,9,11,13,15,17,19,21,23,25,27,29,-1,-1,-1,-1,-1,-1,-1,-1,-1,-1,-1,-1,-1,-1,-1,-1],"loss_changes":[4.1833344E2,4.7627396E1,5.4008484E1,4.3736164E1,1.8499756E1,6.2922913E1,2.5768158E1,1.2409687E1,3.9003075E1,2.3917648E1,7.255005E0,3.1932137E1,1.7292267E1,2.0149338E1,1.0828697E1,0E0,0E0,0E0,0E0,0E0,0E0,0E0,0E0,0E0,0E0,0E0,0E0,0E0,0E0,0E0,0E0],"parents":[2147483647,0,0,1,1,2,2,3,3,4,4,5,5,6,6,7,7,8,8,9,9,10,10,11,11,12,12,13,13,14,14],"right_children":[2,4,6,8,10,12,14,16,18,20,22,24,26,28,30,-1,-1,-1,-1,-1,-1,-1,-1,-1,-1,-1,-1,-1,-1,-1,-1],"split_conditions":[7.2E1,3.644E3,2.5E1,-9E0,6.8E1,7.304E1,2E0,8E1,2E0,5.27E1,5.45E1,7.4E1,5.88E3,3.1E1,5.6E1,-9.527793E-2,-4.0412012E-1,-4.0595087E-1,1.4459144E-1,-1.3159488E-1,-4.4461837E-1,-5.516619E-1,3.70121E-3,1.4247786E-1,8.007955E-1,2.7430916E-1,1.5539131E0,-4.3935227E-1,2.4741483E-1,5.386437E-1,1.5390734E-1],"split_indices":[6,8,9,9,5,7,2,11,0,7,7,5,3,9,9,0,0,0,0,0,0,0,0,0,0,0,0,0,0,0,0],"split_type":[0,0,0,0,0,0,0,0,0,0,0,0,0,0,0,0,0,0,0,0,0,0,0,0,0,0,0,0,0,0,0],"sum_hessian":[1.62E2,1.22E2,4E1,6.3E1,5.9E1,1.7E1,2.3E1,2.2E1,4.1E1,4.6E1,1.3E1,1.2E1,5E0,5E0,1.8E1,1E1,1.2E1,5E0,3.6E1,3.2E1,1.4E1,1.2E1,1E0,6E0,6E0,1E0,4E0,2E0,3E0,1.3E1,5E0],"tree_param":{"num_deleted":"0","num_feature":"12","num_nodes":"31","size_leaf_vector":"1"}},{"base_weights":[4.516321E-2,-8.3866227E-1,2.059382E0,-4.7214368E-1,-1.5313995E0,1.2592378E0,3.298605E0,-8.862931E-1,1.2711504E0,-6.8731254E-1,-4.0606317E-1,1.4629195E0,-5.054895E-1,-2.017835E-1,3.722285E0,-3.1517017E-1,-7.555704E-2,6.801014E-1,9.1087125E-2,1.6818078E-1,-2.533587E-1,1.4374663E-1,5.501293E-1,-1.1159897E-2,-4.9375154E-2,4.3852767E-1,1.0338116E0],"categories":[],"categories_nodes":[],"categories_segments":[],"categories_sizes":[],"default_left":[0,0,0,0,0,0,0,0,0,0,0,0,0,0,0,0,0,0,0,0,0,0,0,0,0,0,0],"id":8,"left_children":[1,3,5,7,9,11,13,15,17,19,-1,21,-1,23,25,-1,-1,-1,-1,-1,-1,-1,-1,-1,-1,-1,-1],"loss_changes":[2.9190265E2,2.822168E1,4.5424118E1,5.5997414E1,1.5028564E1,2.8378372E1,2.892894E1,2.1144695E1,2.4505503E1,1.52344055E1,0E0,2.7730583E1,0E0,5.972713E-3,2.628798E1,0E0,0E0,0E0,0E0,0E0,0E0,0E0,0E0,0E0,0E0,0E0,0E0],"parents":[2147483647,0,0,1,1,2,2,3,3,4,4,5,5,6,6,7,7,8,8,9,9,11,11,13,13,14,14],"right_children":[2,4,6,8,10,12,14,16,18,20,-1,22,-1,24,26,-1,-1,-1,-1,-1,-1,-1,-1,-1,-1,-1,-1],"split_conditions":[6.296E1,9E0,7.106E1,2.4E1,9E1,8.4E1,3E0,3E0,5.4E1,1.1E1,-4.0606317E-1,7.5E1,-5.054895E-1,2E0,5.88E3,-3.1517017E-1,-7.555704E-2,6.801014E-1,9.1087125E-2,1.6818078E-1,-2.533587E-1,1.4374663E-1,5.501293E-1,-1.1159897E-2,-4.9375154E-2,4.3852767E-1,1.0338116E0],"split_indices":[7,0,7,1,11,6,1,0,6,1,0,5,0,1,3,0,0,0,0,0,0,0,0,0,0,0,0],"split_type":[0,0,0,0,0,0,0,0,0,0,0,0,0,0,0,0,0,0,0,0,0,0,0,0,0,0,0],"sum_hessian":[1.62E2,1.13E2,4.9E1,7.5E1,3.8E1,3.1E1,1.8E1,6.1E1,1.4E1,1.5E1,2.3E1,3E1,1E0,2E0,1.6E1,2.5E1,3.6E1,3E0,1.1E1,4E0,1.1E1,2E1,1E1,1E0,1E0,9E0,7E0],"tree_param":{"num_deleted":"0","num_feature":"12","num_nodes":"27","size_leaf_vector":"1"}},{"base_weights":[4.526804E-2,-5.7493174E-1,1.9667556E0,-1.0981798E0,-1.4193425E-1,1.5463859E0,3.7275865E0,-7.2836876E-1,-1.7800031E0,-1.4037402E0,4.0173632E-1,-2.0226924E-1,1.8548529E0,6.444771E-1,1.1757599E0,-3.2801887E-1,-3.773355E-2,3.1782437E-2,-3.7930983E-1,-3.106819E-1,-7.5858615E-2,2.3938182E-1,-6.954413E-2,1.14395715E-1,-9.430291E-2,-7.855635E-2,4.2586046E-1,3.6510278E-2,2.0302545E-1],"categories":[],"categories_nodes":[],"categories_segments":[],"categories_sizes":[],"default_left":[0,0,0,0,0,0,0,0,0,0,0,0,0,0,0,0,0,0,0,0,0,0,0,0,0,0,0,0,0],"id":9,"left_children":[1,3,5,7,9,11,13,15,17,19,21,23,25,27,-1,-1,-1,-1,-1,-1,-1,-1,-1,-1,-1,-1,-1,-1,-1],"loss_changes":[1.9537886E2,2.7938206E1,2.384372E1,1.2823669E1,4.78984E1,1.8714867E1,4.263822E1,1.8388813E1,4.5948677E0,2.6306953E0,2.961763E1,1.5204717E0,1.8725357E1,4.9953854E-1,0E0,0E0,0E0,0E0,0E0,0E0,0E0,0E0,0E0,0E0,0E0,0E0,0E0,0E0,0E0],"parents":[2147483647,0,0,1,1,2,2,3,3,4,4,5,5,6,6,7,7,8,8,9,9,10,10,11,11,12,12,13,13],"right_children":[2,4,6,8,10,12,14,16,18,20,22,24,26,28,-1,-1,-1,-1,-1,-1,-1,-1,-1,-1,-1,-1,-1,-1,-1],"split_conditions":[6.728E1,5.18E1,8.51E1,5E0,-2.2E1,6.8E1,6.2E1,4.1E1,2E0,7.034E1,7E0,5E0,4E0,4E0,1.1757599E0,-3.2801887E-1,-3.773355E-2,3.1782437E-2,-3.7930983E-1,-3.106819E-1,-7.5858615E-2,2.3938182E-1,-6.954413E-2,1.14395715E-1,-9.430291E-2,-7.855635E-2,4.2586046E-1,3.6510278E-2,2.0302545E-1],"split_indices":[7,7,10,0,9,5,5,6,4,10,0,0,1,2,0,0,0,0,0,0,0,0,0,0,0,0,0,0,0],"split_type":[0,0,0,0,0,0,0,0,0,0,0,0,0,0,0,0,0,0,0,0,0,0,0,0,0,0,0,0,0],"sum_hessian":[1.62E2,1.23E2,3.9E1,5.5E1,6.8E1,3.3E1,6E0,3.7E1,1.8E1,2E1,4.8E1,5E0,2.8E1,3E0,3E0,1.3E1,2.4E1,1E0,1.7E1,1.7E1,3E0,2.3E1,2.5E1,1E0,4E0,3E0,2.5E1,2E0,1E0],"tree_param":{"num_deleted":"0","num_feature":"12","num_nodes":"29","size_leaf_vector":"1"}},{"base_weights":[4.1445564E-2,-4.840248E-1,1.6168458E0,-1.4941503E-2,-8.273683E-1,2.6008577E0,8.114683E-1,-1.3574067E0,4.1108263E-1,-1.0329707E0,8.351032E-2,1.5726479E0,4.3951693E0,-1.6207746E0,1.1062529E0,-4.2836434E-1,-1.1988392E-1,1.915057E-1,-1.1998508E-1,-2.3418823E-1,-9.306158E-2,1.9067022E-1,-1.8450469E-1,5.0056595E-1,1.4059544E-2,1.8272285E-1,9.8175144E-1,-4.9752674E-1,1.1294365E-2,2.081415E-2,3.8654643E-1],"categories":[],"categories_nodes":[],"categories_segments":[],"categories_sizes":[],"default_left":[0,0,0,0,0,0,0,0,0,0,0,0,0,0,0,0,0,0,0,0,0,0,0,0,0,0,0,0,0,0,0],"id":10,"left_children":[1,3,5,7,9,11,13,15,17,19,21,23,25,27,29,-1,-1,-1,-1,-1,-1,-1,-1,-1,-1,-1,-1,-1,-1,-1,-1],"loss_changes":[1.3571826E2,1.9797613E1,3.0382019E1,3.0869902E1,1.3383057E1,2.6296669E1,1.900069E1,6.4456444E0,2.3225351E1,3.997757E0,1.3130737E1,1.799102E1,6.2437897E0,4.5022902E0,1.8021076E1,0E0,0E0,0E0,0E0,0E0,0E0,0E0,0E0,0E0,0E0,0E0,0E0,0E0,0E0,0E0,0E0],"parents":[2147483647,0,0,1,1,2,2,3,3,4,4,5,5,6,6,7,7,8,8,9,9,10,10,11,11,12,12,13,13,14,14],"right_children":[2,4,6,8,10,12,14,16,18,20,22,24,26,28,30,-1,-1,-1,-1,-1,-1,-1,-1,-1,-1,-1,-1,-1,-1,-1,-1],"split_conditions":[7.2E1,1.2E2,2.5E1,4.676E1,3E2,7.304E1,2.8E1,4.1E1,6.764E1,5E0,7E0,7.6E1,5.88E3,8E0,7.394E1,-4.2836434E-1,-1.1988392E-1,1.915057E-1,-1.1998508E-1,-2.3418823E-1,-9.306158E-2,1.9067022E-1,-1.8450469E-1,5.0056595E-1,1.4059544E-2,1.8272285E-1,9.8175144E-1,-4.9752674E-1,1.1294365E-2,2.081415E-2,3.8654643E-1],"split_indices":[6,11,9,7,11,7,9,6,10,2,4,6,3,0,10,0,0,0,0,0,0,0,0,0,0,0,0,0,0,0,0],"split_type":[0,0,0,0,0,0,0,0,0,0,0,0,0,0,0,0,0,0,0,0,0,0,0,0,0,0,0,0,0,0,0],"sum_hessian":[1.62E2,1.22E2,4E1,5.2E1,7E1,1.7E1,2.3E1,1.2E1,4E1,5.7E1,1.3E1,1.2E1,5E0,2E0,2.1E1,5E0,7E0,2.6E1,1.4E1,4.5E1,1.2E1,7E0,6E0,7E0,5E0,1E0,4E0,1E0,1E0,1E1,1.1E1],"tree_param":{"num_deleted":"0","num_feature":"12","num_nodes":"31","size_leaf_vector":"1"}},{"base_weights":[3.8079124E-2,-4.6222585E-1,1.1780128E0,-2.5244784E-1,-1.1989377E0,9.037318E-1,2.733778E0,1.3105653E-1,-8.8795674E-1,-6.8520015E-1,-1.6983865E0,-5.371693E-1,1.0612512E0,5.2344656E-1,8.52133E-1,-2.5624353E-1,1.2413249E-1,-1.0597179E-1,-3.388811E-1,-2.157789E-1,1.1375189E-1,-3.8256904E-1,-8.347907E-2,6.284161E-2,-1.6571312E-1,3.97001E-1,1.1889272E-1,2.9951988E-2,1.6445065E-1],"categories":[],"categories_nodes":[],"categories_segments":[],"categories_sizes":[],"default_left":[0,0,0,0,0,0,0,0,0,0,0,0,0,0,0,0,0,0,0,0,0,0,0,0,0,0,0,0,0],"id":11,"left_children":[1,3,5,7,9,11,13,15,17,19,21,23,25,27,-1,-1,-1,-1,-1,-1,-1,-1,-1,-1,-1,-1,-1,-1,-1],"loss_changes":[9.350578E1,1.7315565E1,1.8865242E1,2.2051212E1,5.250908E0,1.055674E1,2.1394253E1,4.0208294E1,8.920982E0,7.525107E0,2.4982224E0,1.5007832E0,1.606786E1,3.2349968E-1,0E0,0E0,0E0,0E0,0E0,0E0,0E0,0E0,0E0,0E0,0E0,0E0,0E0,0E0,0E0],"parents":[2147483647,0,0,1,1,2,2,3,3,4,4,5,5,6,6,7,7,8,8,9,9,10,10,11,11,12,12,13,13],"right_children":[2,4,6,8,10,12,14,16,18,20,22,24,26,28,-1,-1,-1,-1,-1,-1,-1,-1,-1,-1,-1,-1,-1,-1,-1],"split_conditions":[6.296E1,7E0,8.51E1,9E0,3.3E1,-1.6E1,6.2E1,2E0,2.3E1,2.6E1,2.5E2,7E0,7.5E1,4E0,8.52133E-1,-2.5624353E-1,1.2413249E-1,-1.0597179E-1,-3.388811E-1,-2.157789E-1,1.1375189E-1,-3.8256904E-1,-8.347907E-2,6.284161E-2,-1.6571312E-1,3.97001E-1,1.1889272E-1,2.9951988E-2,1.6445065E-1],"split_indices":[7,4,10,0,9,9,5,0,1,9,11,0,6,2,0,0,0,0,0,0,0,0,0,0,0,0,0,0,0],"split_type":[0,0,0,0,0,0,0,0,0,0,0,0,0,0,0,0,0,0,0,0,0,0,0,0,0,0,0,0,0],"sum_hessian":[1.62E2,1.13E2,4.9E1,8.9E1,2.4E1,4.3E1,6E0,5.6E1,3.3E1,1.3E1,1.1E1,4E0,3.9E1,3E0,3E0,1.4E1,4.2E1,2.4E1,9E0,1E1,3E0,9E0,2E0,1E0,3E0,1.2E1,2.7E1,2E0,1E0],"tree_param":{"num_deleted":"0","num_feature":"12","num_nodes":"29","size_leaf_vector":"1"}},{"base_weights":[3.2392915E-2,-3.3142784E-1,1.1594274E0,-5.4650176E-1,1.8905681E-1,1.4143568E0,-2.4443367E-1,-7.036128E-1,1.0357544E-1,-1.3202302E-1,2.2703724E0,-1.053401E-1,1.6191914E0,1.2932435E-1,-5.0071317E-1,-1.062166E-1,-2.5269827E-1,-1.5130351E-1,1.7346032E-1,5.0194617E-2,-3.7946686E-1,1.05021475E-2,7.4628866E-1,1.0395055E-1,4.5724368E-1,-1.1016201E-1,-2.5022889E-2],"categories":[],"categories_nodes":[],"categories_segments":[],"categories_sizes":[],"default_left":[0,0,0,0,0,0,0,0,0,0,0,0,0,0,0,0,0,0,0,0,0,0,0,0,0,0,0],"id":12,"left_children":[1,3,5,7,9,11,13,15,17,19,21,-1,23,-1,25,-1,-1,-1,-1,-1,-1,-1,-1,-1,-1,-1,-1],"loss_changes":[6.722054E1,1.3984211E1,1.466114E1,9.060698E0,2.5025675E1,1.4371086E1,1.9222865E0,6.1872787E0,1.2479887E1,2.2787722E1,1.600632E1,0E0,2.1545746E1,0E0,4.398358E-2,0E0,0E0,0E0,0E0,0E0,0E0,0E0,0E0,0E0,0E0,0E0,0E0],"parents":[2147483647,0,0,1,1,2,2,3,3,4,4,5,5,6,6,7,7,8,8,9,9,10,10,12,12,14,14],"right_children":[2,4,6,8,10,12,14,16,18,20,22,-1,24,-1,26,-1,-1,-1,-1,-1,-1,-1,-1,-1,-1,-1,-1],"split_conditions":[6.728E1,5.702E1,5.6E1,2.5E2,2.5E1,4E0,1E1,7E0,4.7E1,2.2E1,3E0,-1.053401E-1,5E0,1.2932435E-1,8E1,-1.062166E-1,-2.5269827E-1,-1.5130351E-1,1.7346032E-1,5.0194617E-2,-3.7946686E-1,1.05021475E-2,7.4628866E-1,1.0395055E-1,4.5724368E-1,-1.1016201E-1,-2.5022889E-2],"split_indices":[7,7,9,11,1,1,1,4,5,1,2,0,4,0,5,0,0,0,0,0,0,0,0,0,0,0,0],"split_type":[0,0,0,0,0,0,0,0,0,0,0,0,0,0,0,0,0,0,0,0,0,0,0,0,0,0,0],"sum_hessian":[1.62E2,1.23E2,3.9E1,8.7E1,3.6E1,3.3E1,6E0,7E1,1.7E1,3.2E1,4E0,3E0,3E1,1E0,5E0,5.5E1,1.5E1,8E0,9E0,2.7E1,5E0,2E0,2E0,1.2E1,1.8E1,4E0,1E0],"tree_param":{"num_deleted":"0","num_feature":"12","num_nodes":"27","size_leaf_vector":"1"}},{"base_weights":[2.9231869E-2,-2.7567422E-1,9.432371E-1,-1.536973E0,-1.8631159E-1,1.6191661E0,3.9698884E-1,-6.4587355E-2,-3.328546E-1,4.4507927E-1,-4.535356E-1,1.020488E0,6.9188356E-1,-1.695376E0,6.6426635E-1,1.4094933E-2,2.7490866E-1,-6.047343E-2,-3.2921666E-1,8.478785E-3,3.7420422E-1,-4.7005844E-1,-3.855438E-2,2.4419619E-2,3.1955972E-1],"categories":[],"categories_nodes":[],"categories_segments":[],"categories_sizes":[],"default_left":[0,0,0,0,0,0,0,0,0,0,0,0,0,0,0,0,0,0,0,0,0,0,0,0,0],"id":13,"left_children":[1,3,5,7,9,11,13,-1,-1,15,17,19,-1,21,23,-1,-1,-1,-1,-1,-1,-1,-1,-1,-1],"loss_changes":[4.5685806E1,1.357734E1,1.4495438E1,6.989174E-1,1.9773703E1,1.630064E1,1.4547992E1,0E0,0E0,1.2089481E1,1.4284874E1,1.23991995E1,0E0,2.4991684E0,1.0939807E1,0E0,0E0,0E0,0E0,0E0,0E0,0E0,0E0,0E0,0E0],"parents":[2147483647,0,0,1,1,2,2,3,3,4,4,5,5,6,6,9,9,10,10,11,11,13,13,14,14],"right_children":[2,4,6,8,10,12,14,-1,-1,16,18,20,-1,22,24,-1,-1,-1,-1,-1,-1,-1,-1,-1,-1],"split_conditions":[7.2E1,4.42E2,2.5E1,2E0,2.047E3,5.9E3,2.8E1,-6.4587355E-2,-3.328546E-1,2.5E1,7.6E1,7.4E1,6.9188356E-1,8E0,7.4E1,1.4094933E-2,2.7490866E-1,-6.047343E-2,-3.2921666E-1,8.478785E-3,3.7420422E-1,-4.7005844E-1,-3.855438E-2,2.4419619E-2,3.1955972E-1],"split_indices":[6,8,9,4,8,3,9,0,0,1,5,5,0,0,5,0,0,0,0,0,0,0,0,0,0],"split_type":[0,0,0,0,0,0,0,0,0,0,0,0,0,0,0,0,0,0,0,0,0,0,0,0,0],"sum_hessian":[1.62E2,1.22E2,4E1,7E0,1.15E2,1.7E1,2.3E1,1E0,6E0,3.4E1,8.1E1,1.4E1,3E0,2E0,2.1E1,2.5E1,9E0,7.3E1,8E0,7E0,7E0,1E0,1E0,1.4E1,7E0],"tree_param":{"num_deleted":"0","num_feature":"12","num_nodes":"25","size_leaf_vector":"1"}},{"base_weights":[2.5911888E-2,-3.5724655E-1,5.4006875E-1,-1.1154715E0,-2.3268348E-1,2.8980607E-1,2.0126643E0,-1.2700592E0,-1.76826E-1,-4.78359E-2,-9.366398E-1,5.67646E-1,-1.1839423E0,3.1222034E0,1.0911185E0,-1.5361828E-1,-3.120701E-1,-4.868884E-2,-4.3589594E-3,-1.6245121E-1,5.114873E-2,-2.2556606E-1,2.122408E-1,1.7460862E-1,-1.3000393E-1,-3.642529E-1,4.547138E-2,-3.829627E-2,8.581185E-1,3.1861007E-1,-2.1828206E-2],"categories":[],"categories_nodes":[],"categories_segments":[],"categories_sizes":[],"default_left":[0,0,0,0,0,0,0,0,0,0,0,0,0,0,0,0,0,0,0,0,0,0,0,0,0,0,0,0,0,0,0],"id":14,"left_children":[1,3,5,7,9,11,13,15,17,19,21,23,25,27,29,-1,-1,-1,-1,-1,-1,-1,-1,-1,-1,-1,-1,-1,-1,-1,-1],"loss_changes":[3.2304512E1,8.618449E0,2.5214218E1,1.6617584E0,1.0625413E1,2.5649494E1,6.818218E0,4.0439606E-1,2.5677882E-2,1.5523843E1,7.6903257E0,1.9904816E1,9.408597E0,1.6308254E1,4.3910074E0,0E0,0E0,0E0,0E0,0E0,0E0,0E0,0E0,0E0,0E0,0E0,0E0,0E0,0E0,0E0,0E0],"parents":[2147483647,0,0,1,1,2,2,3,3,4,4,5,5,6,6,7,7,8,8,9,9,10,10,11,11,12,12,13,13,14,14],"right_children":[2,4,6,8,10,12,14,16,18,20,22,24,26,28,30,-1,-1,-1,-1,-1,-1,-1,-1,-1,-1,-1,-1,-1,-1,-1,-1],"split_conditions":[5.792E1,4E1,2.7E1,5.61E3,5.4E1,2.2E1,1E0,5.7E1,2E0,3.8E1,8.2E1,1.2E2,7.088E1,2E0,3E1,-1.5361828E-1,-3.120701E-1,-4.868884E-2,-4.3589594E-3,-1.6245121E-1,5.114873E-2,-2.2556606E-1,2.122408E-1,1.7460862E-1,-1.3000393E-1,-3.642529E-1,4.547138E-2,-3.829627E-2,8.581185E-1,3.1861007E-1,-2.1828206E-2],"split_indices":[7,6,1,3,9,1,9,5,0,5,5,11,7,0,1,0,0,0,0,0,0,0,0,0,0,0,0,0,0,0,0],"split_type":[0,0,0,0,0,0,0,0,0,0,0,0,0,0,0,0,0,0,0,0,0,0,0,0,0,0,0,0,0,0,0],"sum_hessian":[1.62E2,9.3E1,6.9E1,1.2E1,8.1E1,6E1,9E0,1E1,2E0,6.5E1,1.6E1,5.1E1,9E0,3E0,6E0,5E0,5E0,1E0,1E0,1.8E1,4.7E1,1.5E1,1E0,4.1E1,1E1,6E0,3E0,1E0,2E0,4E0,2E0],"tree_param":{"num_deleted":"0","num_feature":"12","num_nodes":"31","size_leaf_vector":"1"}},{"base_weights":[2.1950848E-2,-1.1107043E-1,1.0359579E0,-1.2891924E0,-3.2864824E-2,-1.3006121E-1,1.2725953E0,-4.188347E-2,-2.7959743E-1,-2.955685E-1,3.7639397E-1,-1.04216896E-1,1.5464915E0,-1.86456E-1,-3.5300322E-2,2.2237754E-1,1.682681E-3,4.0174007E-2,3.7323153E-1],"categories":[],"categories_nodes":[],"categories_segments":[],"categories_sizes":[],"default_left":[0,0,0,0,0,0,0,0,0,0,0,0,0,0,0,0,0,0,0],"id":15,"left_children":[1,3,5,7,9,-1,11,-1,-1,13,15,-1,17,-1,-1,-1,-1,-1,-1],"loss_changes":[2.210124E1,1.3317314E1,8.409203E0,7.645016E-1,1.484064E1,0E0,9.157648E0,0E0,0E0,6.203596E0,1.4605604E1,0E0,6.0773926E0,0E0,0E0,0E0,0E0,0E0,0E0],"parents":[2147483647,0,0,1,1,2,2,3,3,4,4,6,6,9,9,10,10,12,12],"right_children":[2,4,6,8,10,-1,12,-1,-1,14,16,-1,18,-1,-1,-1,-1,-1,-1],"split_conditions":[7.106E1,4.42E2,7.502E1,2E0,6.08E1,-1.3006121E-1,3E0,-4.188347E-2,-2.7959743E-1,4E1,5.79E3,-1.04216896E-1,6.2E1,-1.86456E-1,-3.5300322E-2,2.2237754E-1,1.682681E-3,4.0174007E-2,3.7323153E-1],"split_indices":[7,8,10,4,10,0,1,0,0,6,3,0,5,0,0,0,0,0,0],"split_type":[0,0,0,0,0,0,0,0,0,0,0,0,0,0,0,0,0,0,0],"sum_hessian":[1.62E2,1.44E2,1.8E1,8E0,1.36E2,2E0,1.6E1,1E0,7E0,8.3E1,5.3E1,2E0,1.4E1,1.2E1,7.1E1,1.7E1,3.6E1,3E0,1.1E1],"tree_param":{"num_deleted":"0","num_feature":"12","num_nodes":"19","size_leaf_vector":"1"}},{"base_weights":[1.6701499E-2,-1.6619574E-1,5.649859E-1,-6.420674E-1,-1.255378E-2,2.0884032E0,3.4384874E-1,-7.346674E-1,-3.213353E-2,-3.3985087E-1,3.3636168E-1,-1.7690659E-3,5.229854E-1,2.0641091E-1,5.291611E-1,-8.234565E-2,-1.8880819E-1,4.2669233E-2,-5.338041E-2,-3.865495E-2,-3.182132E-1,2.999417E-1,1.7820364E-2,2.6189682E-1,5.521077E-3],"categories":[],"categories_nodes":[],"categories_segments":[],"categories_sizes":[],"default_left":[0,0,0,0,0,0,0,0,0,0,0,0,0,0,0,0,0,0,0,0,0,0,0,0,0],"id":16,"left_children":[1,3,5,7,9,11,13,15,17,19,21,-1,-1,23,-1,-1,-1,-1,-1,-1,-1,-1,-1,-1,-1],"loss_changes":[1.6439487E1,8.984942E0,1.3094155E1,1.6707907E0,1.084902E1,5.544384E0,1.1159786E1,1.3692999E0,3.4509706E-1,8.679003E0,1.3098225E1,0E0,0E0,7.0643315E0,0E0,0E0,0E0,0E0,0E0,0E0,0E0,0E0,0E0,0E0,0E0],"parents":[2147483647,0,0,1,1,2,2,3,3,4,4,5,5,6,6,7,7,8,8,9,9,10,10,13,13],"right_children":[2,4,6,8,10,12,14,16,18,20,22,-1,-1,24,-1,-1,-1,-1,-1,-1,-1,-1,-1,-1,-1],"split_conditions":[7.2E1,4.2E1,7.4E1,2.4E1,5.18E1,5E0,9.068E1,-3.9E1,2.7E1,5.9E1,5.306E1,-1.7690659E-3,5.229854E-1,6E0,5.291611E-1,-8.234565E-2,-1.8880819E-1,4.2669233E-2,-5.338041E-2,-3.865495E-2,-3.182132E-1,2.999417E-1,1.7820364E-2,2.6189682E-1,5.521077E-3],"split_indices":[6,5,6,1,7,1,10,9,1,6,7,0,0,0,0,0,0,0,0,0,0,0,0,0,0],"split_type":[0,0,0,0,0,0,0,0,0,0,0,0,0,0,0,0,0,0,0,0,0,0,0,0,0],"sum_hessian":[1.62E2,1.22E2,4E1,2.9E1,9.3E1,4E0,3.6E1,2.5E1,4E0,4.8E1,4.5E1,1E0,3E0,3.5E1,1E0,1.1E1,1.4E1,2E0,2E0,4.4E1,4E0,7E0,3.8E1,4E0,3.1E1],"tree_param":{"num_deleted":"0","num_feature":"12","num_nodes":"25","size_leaf_vector":"1"}},{"base_weights":[1.9476581E-2,-5.0363578E-2,1.2201152E0,1.6913036E-1,-2.92906E-1,1.6963155E0,-5.9544753E-2,-5.6987345E-1,3.296587E-1,-4.358201E-1,1.14753105E-1,4.1459608E-1,1.00620404E-1,-3.343439E-2,-2.012444E-1,2.131444E-1,2.0246183E-2,-4.836073E-2,-1.6423963E-1,-6.80912E-2,1.6802475E-1],"categories":[],"categories_nodes":[],"categories_segments":[],"categories_sizes":[],"default_left":[0,0,0,0,0,0,0,0,0,0,0,0,0,0,0,0,0,0,0,0,0],"id":17,"left_children":[1,3,5,7,9,11,-1,13,15,17,19,-1,-1,-1,-1,-1,-1,-1,-1,-1,-1],"loss_changes":[1.3729454E1,8.30121E0,7.010193E0,9.915609E0,4.361269E0,2.1031704E0,0E0,2.4675612E0,1.1325455E1,3.913763E0,6.889931E0,0E0,0E0,0E0,0E0,0E0,0E0,0E0,0E0,0E0,0E0],"parents":[2147483647,0,0,1,1,2,2,3,3,4,4,5,5,7,7,8,8,9,9,10,10],"right_children":[2,4,6,8,10,12,-1,14,16,18,20,-1,-1,-1,-1,-1,-1,-1,-1,-1,-1],"split_conditions":[7.448E1,1.2E2,9.3E1,5.198E1,2.5E2,8E1,-5.9544753E-2,6.2E1,5.75E3,6E1,4E0,4.1459608E-1,1.00620404E-1,-3.343439E-2,-2.012444E-1,2.131444E-1,2.0246183E-2,-4.836073E-2,-1.6423963E-1,-6.80912E-2,1.6802475E-1],"split_indices":[7,11,6,10,11,11,0,5,3,6,0,0,0,0,0,0,0,0,0,0,0],"split_type":[0,0,0,0,0,0,0,0,0,0,0,0,0,0,0,0,0,0,0,0,0],"sum_hessian":[1.62E2,1.54E2,8E0,8.1E1,7.3E1,6E0,2E0,1.4E1,6.7E1,5.4E1,1.9E1,4E0,2E0,8E0,6E0,1.5E1,5.2E1,3.7E1,1.7E1,1.2E1,7E0],"tree_param":{"num_deleted":"0","num_feature":"12","num_nodes":"21","size_leaf_vector":"1"}},{"base_weights":[1.7677652E-2,-3.5954833E-2,1.2180523E0,-4.551358E-1,8.3616614E-2,1.9738936E-1,3.8684043E-1,-5.04481E-1,-5.8168173E-2,-1.0205457E0,1.4896294E-1,7.339128E-2,-3.1131173E-2,-8.1582695E-2,-1.8500993E-1,-4.479593E-2,6.0507774E-2,-2.5698447E-1,5.657139E-2,6.360733E-2,-7.0390396E-2],"categories":[],"categories_nodes":[],"categories_segments":[],"categories_sizes":[],"default_left":[0,0,0,0,0,0,0,0,0,0,0,0,0,0,0,0,0,0,0,0,0],"id":18,"left_children":[1,3,5,7,9,11,-1,13,15,17,19,-1,-1,-1,-1,-1,-1,-1,-1,-1,-1],"loss_changes":[1.0537584E1,7.9072227E0,4.7348433E0,6.5625143E-1,9.026836E0,2.9657823E-1,0E0,8.816714E-1,3.668094E-1,2.7755728E0,1.0020843E1,0E0,0E0,0E0,0E0,0E0,0E0,0E0,0E0,0E0,0E0],"parents":[2147483647,0,0,1,1,2,2,3,3,4,4,5,5,7,7,8,8,9,9,10,10],"right_children":[2,4,6,8,10,12,-1,14,16,18,20,-1,-1,-1,-1,-1,-1,-1,-1,-1,-1],"split_conditions":[8.51E1,4.5E1,6.2E1,2.4E1,4.42E2,7E0,3.8684043E-1,2.2E1,3E0,5.87E3,5.4E1,7.339128E-2,-3.1131173E-2,-8.1582695E-2,-1.8500993E-1,-4.479593E-2,6.0507774E-2,-2.5698447E-1,5.657139E-2,6.360733E-2,-7.0390396E-2],"split_indices":[10,5,5,1,8,0,0,1,2,3,9,0,0,0,0,0,0,0,0,0,0],"split_type":[0,0,0,0,0,0,0,0,0,0,0,0,0,0,0,0,0,0,0,0,0],"sum_hessian":[1.62E2,1.56E2,6E0,3.4E1,1.22E2,3E0,3E0,3E1,4E0,6E0,1.16E2,2E0,1E0,2.6E1,4E0,3E0,1E0,5E0,1E0,8.7E1,2.9E1],"tree_param":{"num_deleted":"0","num_feature":"12","num_nodes":"21","size_leaf_vector":"1"}},{"base_weights":[1.3964273E-2,-2.411221E-1,2.3410745E-1,-1.3236319E-1,-1.0360647E0,9.658169E-2,1.0970554E0,-2.871585E-1,7.941655E-1,1.8021755E-1,-1.3908448E0,2.8820917E-1,-8.6898506E-1,4.6275383E-1,6.223359E-1,-2.9041294E-2,-1.3191584E-1,3.2386896E-1,-7.097658E-2,-3.0376312E-1,-4.9504947E-2,-1.042889E-2,1.2001305E-1,7.885824E-3,-3.3065173E-1,-3.7135135E-2,2.9349652E-1],"categories":[],"categories_nodes":[],"categories_segments":[],"categories_sizes":[],"default_left":[0,0,0,0,0,0,0,0,0,0,0,0,0,0,0,0,0,0,0,0,0,0,0,0,0,0,0],"id":19,"left_children":[1,3,5,7,9,11,13,15,17,-1,19,21,23,-1,25,-1,-1,-1,-1,-1,-1,-1,-1,-1,-1,-1,-1],"loss_changes":[9.2098E0,6.433602E0,1.0337672E1,9.980768E0,7.4386406E0,1.4497692E1,5.491233E0,3.0233107E0,1.0056389E1,0E0,7.94549E-1,6.9304776E0,9.326975E0,0E0,7.1013594E0,0E0,0E0,0E0,0E0,0E0,0E0,0E0,0E0,0E0,0E0,0E0,0E0],"parents":[2147483647,0,0,1,1,2,2,3,3,4,4,5,5,6,6,7,7,8,8,10,10,11,11,12,12,14,14],"right_children":[2,4,6,8,10,12,14,16,18,-1,20,22,24,-1,26,-1,-1,-1,-1,-1,-1,-1,-1,-1,-1,-1,-1],"split_conditions":[5.45E1,6E1,2.7E1,5.7E1,5E1,2.2E1,5.75E3,7E0,1.5E2,1.8021755E-1,3.1E1,2E0,7.1E1,4.6275383E-1,6.2E1,-2.9041294E-2,-1.3191584E-1,3.2386896E-1,-7.097658E-2,-3.0376312E-1,-4.9504947E-2,-1.042889E-2,1.2001305E-1,7.885824E-3,-3.3065173E-1,-3.7135135E-2,2.9349652E-1],"split_indices":[7,6,1,6,10,1,3,4,11,0,1,9,5,0,5,0,0,0,0,0,0,0,0,0,0,0,0],"split_type":[0,0,0,0,0,0,0,0,0,0,0,0,0,0,0,0,0,0,0,0,0,0,0,0,0,0,0],"sum_hessian":[1.62E2,7.5E1,8.7E1,6.7E1,8E0,7.6E1,1.1E1,5.8E1,9E0,1E0,7E0,6.4E1,1.2E1,2E0,9E0,4.3E1,1.5E1,5E0,4E0,6E0,1E0,3.1E1,3.3E1,6E0,6E0,5E0,4E0],"tree_param":{"num_deleted":"0","num_feature":"12","num_nodes":"27","size_leaf_vector":"1"}},{"base_weights":[1.3777758E-2,-2.9443976E-2,9.8121125E-1,-6.157344E-1,3.2260917E-2,1.7381811E-1,3.0866033E-1,-1.844333E-1,-8.8277584E-1,2.4213813E-1,-2.0278215E-1,3.1277213E-1,-2.430439E-2,9.713555E-3,-5.7469454E-2,-5.398777E-2,-2.6381156E-1,-1.13468885E-1,8.363594E-2,2.6723955E-2,-9.437579E-2,1.9704437E-2,7.41272E-2],"categories":[],"categories_nodes":[],"categories_segments":[],"categories_sizes":[],"default_left":[0,0,0,0,0,0,0,0,0,0,0,0,0,0,0,0,0,0,0,0,0,0,0],"id":20,"left_children":[1,3,5,7,9,11,-1,13,15,17,19,21,-1,-1,-1,-1,-1,-1,-1,-1,-1,-1,-1],"loss_changes":[6.844598E0,5.6996512E0,2.9085402E0,1.5648155E0,7.103318E0,2.021634E-1,0E0,1.8180928E-1,2.0502615E0,1.1067448E1,6.2187295E0,6.761253E-4,0E0,0E0,0E0,0E0,0E0,0E0,0E0,0E0,0E0,0E0,0E0],"parents":[2147483647,0,0,1,1,2,2,3,3,4,4,5,5,7,7,8,8,9,9,10,10,11,11],"right_children":[2,4,6,8,10,12,-1,14,16,18,20,22,-1,-1,-1,-1,-1,-1,-1,-1,-1,-1,-1],"split_conditions":[8.51E1,2E0,6.2E1,2.6E1,8E0,7E0,3.0866033E-1,5.79E3,5.2E1,3.758E1,1.4E1,2.4E1,-2.430439E-2,9.713555E-3,-5.7469454E-2,-5.398777E-2,-2.6381156E-1,-1.13468885E-1,8.363594E-2,2.6723955E-2,-9.437579E-2,1.9704437E-2,7.41272E-2],"split_indices":[10,0,5,5,0,0,0,3,6,7,1,1,0,0,0,0,0,0,0,0,0,0,0],"split_type":[0,0,0,0,0,0,0,0,0,0,0,0,0,0,0,0,0,0,0,0,0,0,0],"sum_hessian":[1.62E2,1.56E2,6E0,1.4E1,1.42E2,3E0,3E0,6E0,8E0,7.5E1,6.7E1,2E0,1E0,2E0,4E0,4E0,4E0,1.3E1,6.2E1,3E1,3.7E1,1E0,1E0],"tree_param":{"num_deleted":"0","num_feature":"12","num_nodes":"23","size_leaf_vector":"1"}},{"base_weights":[1.0501683E-2,-1.0167195E-2,3.35886E-1,3.1730924E-2,-6.501917E-1,-3.6398175E-1,1.1560897E-1,-3.30348E-3,-7.187647E-1,-2.9294608E-2,-9.6662395E-2,4.820241E-2,-4.1615386E-2,-6.628462E-2,-1.7143966E-1],"categories":[],"categories_nodes":[],"categories_segments":[],"categories_sizes":[],"default_left":[0,0,0,0,0,0,0,0,0,0,0,0,0,0,0],"id":21,"left_children":[1,3,-1,5,7,9,11,-1,13,-1,-1,-1,-1,-1,-1],"loss_changes":[5.63974E0,4.3647947E0,0E0,5.120395E0,4.226575E-1,6.300025E-1,5.205232E0,0E0,1.9849443E-1,0E0,0E0,0E0,0E0,0E0,0E0],"parents":[2147483647,0,0,1,1,3,3,4,4,5,5,6,6,8,8],"right_children":[2,4,-1,6,8,10,12,-1,14,-1,-1,-1,-1,-1,-1],"split_conditions":[9.068E1,9E0,3.35886E-1,3.3E1,0E0,-4E1,2.2E1,-3.30348E-3,5.7E1,-2.9294608E-2,-9.6662395E-2,4.820241E-2,-4.1615386E-2,-6.628462E-2,-1.7143966E-1],"split_indices":[10,4,0,5,9,9,1,0,5,0,0,0,0,0,0],"split_type":[0,0,0,0,0,0,0,0,0,0,0,0,0,0,0],"sum_hessian":[1.62E2,1.61E2,1E0,1.52E2,9E0,2.6E1,1.26E2,1E0,8E0,1E1,1.6E1,9.1E1,3.5E1,3E0,5E0],"tree_param":{"num_deleted":"0","num_feature":"12","num_nodes":"15","size_leaf_vector":"1"}},{"base_weights":[8.2508875E-3,-5.6883657E-1,5.7879273E-2,-2.2433724E-1,-8.320735E-1,1.4849268E-1,-3.454758E-1,-7.0992835E-2,1.3630676E-2,-7.9046085E-2,-2.1217966E-1,-1.5836088E-1,3.5796618E-1,6.0772276E-1,-5.7911557E-1,-1.8982863E-2,-1.7602591E-1,-1.5056776E-1,9.340991E-2,-4.670105E-2,2.1734262E-1,-2.0901341E-2,-1.6505465E-1],"categories":[],"categories_nodes":[],"categories_segments":[],"categories_sizes":[],"default_left":[0,0,0,0,0,0,0,0,0,0,0,0,0,0,0,0,0,0,0,0,0,0,0],"id":22,"left_children":[1,3,5,7,9,11,13,-1,-1,-1,-1,15,17,19,21,-1,-1,-1,-1,-1,-1,-1,-1],"loss_changes":[4.7012305E0,9.922395E-1,5.570256E0,2.916421E-1,2.8042412E-1,8.0271225E0,6.5876856E0,0E0,0E0,0E0,0E0,2.2519445E0,9.318217E0,2.6713936E0,2.6008115E0,0E0,0E0,0E0,0E0,0E0,0E0,0E0,0E0],"parents":[2147483647,0,0,1,1,2,2,3,3,4,4,5,5,6,6,11,11,12,12,13,13,14,14],"right_children":[2,4,6,8,10,12,14,-1,-1,-1,-1,16,18,20,22,-1,-1,-1,-1,-1,-1,-1,-1],"split_conditions":[4E1,5.8E1,5.4E1,5.51E3,4E0,-4E0,5E0,-7.0992835E-2,1.3630676E-2,-7.9046085E-2,-2.1217966E-1,-7E0,6E0,3E0,2.398E3,-1.8982863E-2,-1.7602591E-1,-1.5056776E-1,9.340991E-2,-4.670105E-2,2.1734262E-1,-2.0901341E-2,-1.6505465E-1],"split_indices":[6,5,9,3,2,9,1,0,0,0,0,9,1,1,8,0,0,0,0,0,0,0,0],"split_type":[0,0,0,0,0,0,0,0,0,0,0,0,0,0,0,0,0,0,0,0,0,0,0],"sum_hessian":[1.62E2,1.2E1,1.5E2,6E0,6E0,1.23E2,2.7E1,4E0,2E0,3E0,3E0,5E1,7.3E1,5E0,2.2E1,4.7E1,3E0,6E0,6.7E1,2E0,3E0,8E0,1.4E1],"tree_param":{"num_deleted":"0","num_feature":"12","num_nodes":"23","size_leaf_vector":"1"}},{"base_weights":[2.8210797E-3,-1.9860066E-2,1.2191023E0,-6.095221E-1,2.322697E-2,7.277413E-2,2.9295656E-1,-8.2954353E-1,5.074323E-2,8.231032E-1,-3.933945E-2,-5.9874307E-2,-2.0894685E-1,-9.0475015E-2,2.3136134E-1,6.4473706E-3,-8.159172E-2],"categories":[],"categories_nodes":[],"categories_segments":[],"categories_sizes":[],"default_left":[0,0,0,0,0,0,0,0,0,0,0,0,0,0,0,0,0],"id":23,"left_children":[1,3,5,7,9,-1,-1,11,-1,13,15,-1,-1,-1,-1,-1,-1],"loss_changes":[4.5208354E0,4.104651E0,9.735012E-2,2.2997084E0,7.589235E0,0E0,0E0,7.140298E-1,0E0,5.205259E0,3.7333512E0,0E0,0E0,0E0,0E0,0E0,0E0],"parents":[2147483647,0,0,1,1,2,2,3,3,4,4,7,7,9,9,10,10],"right_children":[2,4,6,8,10,-1,-1,12,-1,14,16,-1,-1,-1,-1,-1,-1],"split_conditions":[8.978E1,4.42E2,7E0,5.87E3,3E1,7.277413E-2,2.9295656E-1,1.1E1,5.074323E-2,8E0,6.944E1,-5.9874307E-2,-2.0894685E-1,-9.0475015E-2,2.3136134E-1,6.4473706E-3,-8.159172E-2],"split_indices":[10,8,0,3,11,0,0,1,0,1,7,0,0,0,0,0,0],"split_type":[0,0,0,0,0,0,0,0,0,0,0,0,0,0,0,0,0],"sum_hessian":[1.62E2,1.6E2,2E0,1E1,1.5E2,1E0,1E0,8E0,2E0,1E1,1.4E2,3E0,5E0,2E0,8E0,1.18E2,2.2E1],"tree_param":{"num_deleted":"0","num_feature":"12","num_nodes":"17","size_leaf_vector":"1"}},{"base_weights":[3.5660984E-3,-3.1219678E-2,6.81443E-1,-4.7560307E-1,1.5942087E-2,1.0216068E0,-4.5206454E-2,-1.7329386E-1,-7.96343E-1,1.948485E-1,-1.9899087E-1,2.5374174E-1,7.032039E-2,-6.951039E-2,-5.6478977E-3,-4.7815967E-2,-2.309041E-1,8.004194E-2,-5.677793E-2,-6.9755404E-3,-1.3988152E-1],"categories":[],"categories_nodes":[],"categories_segments":[],"categories_sizes":[],"default_left":[0,0,0,0,0,0,0,0,0,0,0,0,0,0,0,0,0,0,0,0,0],"id":24,"left_children":[1,3,5,7,9,11,-1,13,15,17,19,-1,-1,-1,-1,-1,-1,-1,-1,-1,-1],"loss_changes":[3.8648918E0,3.2770154E0,2.700438E0,1.3164382E0,5.499082E0,5.47276E-1,0E0,2.1767738E-1,1.1211715E0,7.7821274E0,5.313729E0,0E0,0E0,0E0,0E0,0E0,0E0,0E0,0E0,0E0,0E0],"parents":[2147483647,0,0,1,1,2,2,3,3,4,4,5,5,7,7,8,8,9,9,10,10],"right_children":[2,4,6,8,10,12,-1,14,16,18,20,-1,-1,-1,-1,-1,-1,-1,-1,-1,-1],"split_conditions":[5.9E3,2E0,9.3E1,-2.7E1,8E0,4E0,-4.5206454E-2,5.3E1,5.2E1,5.2E1,2.2E1,2.5374174E-1,7.032039E-2,-6.951039E-2,-5.6478977E-3,-4.7815967E-2,-2.309041E-1,8.004194E-2,-5.677793E-2,-6.9755404E-3,-1.3988152E-1],"split_indices":[3,0,6,9,0,2,0,6,6,9,1,0,0,0,0,0,0,0,0,0,0],"split_type":[0,0,0,0,0,0,0,0,0,0,0,0,0,0,0,0,0,0,0,0,0],"sum_hessian":[1.62E2,1.55E2,7E0,1.4E1,1.41E2,5E0,2E0,8E0,6E0,7.7E1,6.4E1,3E0,2E0,3E0,5E0,3E0,3E0,5.4E1,2.3E1,4.9E1,1.5E1],"tree_param":{"num_deleted":"0","num_feature":"12","num_nodes":"21","size_leaf_vector":"1"}},{"base_weights":[1.6343162E-3,-5.300176E-1,4.3596085E-2,-2.3631972E-1,-1.7878614E-1,-4.040744E-1,9.194001E-2,-7.2551E-2,9.532404E-2,-1.4698607E-1,-6.768917E-1,4.144387E-1,-3.9291184E-2,4.9651768E-2,-2.1054555E-2,-4.4117324E-2,1.4748781E-2,-1.8027022E-1,-1.5432422E-2,2.1236876E-1,3.8445875E-2,-5.5422217E-2,3.6198094E-2],"categories":[],"categories_nodes":[],"categories_segments":[],"categories_sizes":[],"default_left":[0,0,0,0,0,0,0,0,0,0,0,0,0,0,0,0,0,0,0,0,0,0,0],"id":25,"left_children":[1,3,5,7,-1,9,11,-1,13,15,17,19,21,-1,-1,-1,-1,-1,-1,-1,-1,-1,-1],"loss_changes":[3.6594827E0,1.0713129E0,3.3267572E0,3.7003094E-1,0E0,9.525783E-1,5.856704E0,0E0,1.1816959E-1,1.6247949E-1,8.727548E-1,5.5502605E0,5.236503E0,0E0,0E0,0E0,0E0,0E0,0E0,0E0,0E0,0E0,0E0],"parents":[2147483647,0,0,1,1,2,2,3,3,5,5,6,6,8,8,9,9,10,10,11,11,12,12],"right_children":[2,4,6,8,-1,10,12,-1,14,16,18,20,22,-1,-1,-1,-1,-1,-1,-1,-1,-1,-1],"split_conditions":[5.54E3,5.7E1,2E0,4.1E1,-1.7878614E-1,-2.7E1,5E0,-7.2551E-2,4E0,2.667E3,6E1,9E1,6.6E1,4.9651768E-2,-2.1054555E-2,-4.4117324E-2,1.4748781E-2,-1.8027022E-1,-1.5432422E-2,2.1236876E-1,3.8445875E-2,-5.5422217E-2,3.6198094E-2],"split_indices":[3,5,0,6,0,9,0,0,0,8,5,11,6,0,0,0,0,0,0,0,0,0,0],"split_type":[0,0,0,0,0,0,0,0,0,0,0,0,0,0,0,0,0,0,0,0,0,0,0],"sum_hessian":[1.62E2,1.1E1,1.51E2,7E0,4E0,1.4E1,1.37E2,5E0,2E0,8E0,6E0,3.9E1,9.8E1,1E0,1E0,6E0,2E0,4E0,2E0,9E0,3E1,4.7E1,5.1E1],"tree_param":{"num_deleted":"0","num_feature":"12","num_nodes":"23","size_leaf_vector":"1"}},{"base_weights":[-1.8921366E-5,-1.089216E-1,3.534413E-2,3.8928664E-3,6.952645E-1,1.0259381E-1,-2.4765222E-1,8.411309E-1,-1.7993355E-2,-2.2120597E-2,6.123453E-2,5.437522E-2,-1.09269716E-1,2.1025077E-1,5.611801E-2],"categories":[],"categories_nodes":[],"categories_segments":[],"categories_sizes":[],"default_left":[0,0,0,0,0,0,0,0,0,0,0,0,0,0,0],"id":26,"left_children":[1,-1,3,5,7,9,11,13,-1,-1,-1,-1,-1,-1,-1],"loss_changes":[3.1583571E0,0E0,3.1936142E0,3.6999128E0,8.774457E-1,4.6779156E0,6.6661496E0,4.1172314E-1,0E0,0E0,0E0,0E0,0E0,0E0,0E0],"parents":[2147483647,0,0,2,2,3,3,4,4,5,5,6,6,7,7],"right_children":[2,-1,4,6,8,10,12,14,-1,-1,-1,-1,-1,-1,-1],"split_conditions":[3E0,-1.089216E-1,5.9E3,2.2E1,3.1E1,5.6E1,5.7E1,4E0,-1.7993355E-2,-2.2120597E-2,6.123453E-2,5.437522E-2,-1.09269716E-1,2.1025077E-1,5.611801E-2],"split_indices":[1,0,3,1,1,6,6,2,0,0,0,0,0,0,0],"split_type":[0,0,0,0,0,0,0,0,0,0,0,0,0,0,0],"sum_hessian":[1.62E2,9E0,1.53E2,1.47E2,6E0,1.06E2,4.1E1,5E0,1E0,5.2E1,5.4E1,1.5E1,2.6E1,3E0,2E0],"tree_param":{"num_deleted":"0","num_feature":"12","num_nodes":"15","size_leaf_vector":"1"}},{"base_weights":[7.435061E-4,6.998137E-2,-2.3693086E-1,-1.9568892E-1,1.6533038E-1,-4.7545516E-1,5.579731E-1,-4.1839102E-1,-1.11073226E-1,1.240669E0,9.0978004E-2,-6.605786E-1,3.442812E-1,-2.7764785E-1,3.3438227E-1,-9.275074E-3,-1.413457E-1,-3.3387763E-3,-6.426801E-2,3.2162616E-1,-5.9663963E-2,6.0299184E-2,-5.1686633E-2,-7.670673E-2,-2.3334537E-1,2.1037026E-1,-5.4493334E-2,-1.1731099E-1,4.535551E-2],"categories":[],"categories_nodes":[],"categories_segments":[],"categories_sizes":[],"default_left":[0,0,0,0,0,0,0,0,0,0,0,0,0,0,0,0,0,0,0,0,0,0,0,0,0,0,0,0,0],"id":27,"left_children":[1,3,5,7,9,11,13,15,17,19,21,23,25,27,-1,-1,-1,-1,-1,-1,-1,-1,-1,-1,-1,-1,-1,-1,-1],"loss_changes":[2.6989193E0,3.2494411E0,7.280636E0,5.942271E-1,7.402801E0,4.6282454E0,8.841673E0,9.3261945E-1,5.106015E-1,3.8728542E0,6.624517E0,2.9179392E0,2.904948E0,1.0679411E0,0E0,0E0,0E0,0E0,0E0,0E0,0E0,0E0,0E0,0E0,0E0,0E0,0E0,0E0,0E0],"parents":[2147483647,0,0,1,1,2,2,3,3,4,4,5,5,6,6,7,7,8,8,9,9,10,10,11,11,12,12,13,13],"right_children":[2,4,6,8,10,12,14,16,18,20,22,24,26,28,-1,-1,-1,-1,-1,-1,-1,-1,-1,-1,-1,-1,-1,-1,-1],"split_conditions":[7E0,4.5E1,5E0,9E1,4.8E1,8E1,1.9E1,6.13E2,5.6E1,3.1E1,1.9E1,5.75E3,8E0,1.3E1,3.3438227E-1,-9.275074E-3,-1.413457E-1,-3.3387763E-3,-6.426801E-2,3.2162616E-1,-5.9663963E-2,6.0299184E-2,-5.1686633E-2,-7.670673E-2,-2.3334537E-1,2.1037026E-1,-5.4493334E-2,-1.1731099E-1,4.535551E-2],"split_indices":[4,5,2,11,5,6,9,8,6,1,1,3,0,1,0,0,0,0,0,0,0,0,0,0,0,0,0,0,0],"split_type":[0,0,0,0,0,0,0,0,0,0,0,0,0,0,0,0,0,0,0,0,0,0,0,0,0,0,0,0,0],"sum_hessian":[1.62E2,1.26E2,3.6E1,3.3E1,9.3E1,2.8E1,8E0,8E0,2.5E1,5E0,8.8E1,2.3E1,5E0,5E0,3E0,4E0,4E0,1.8E1,7E0,4E0,1E0,5.5E1,3.3E1,1.6E1,7E0,2E0,3E0,3E0,2E0],"tree_param":{"num_deleted":"0","num_feature":"12","num_nodes":"29","size_leaf_vector":"1"}},{"base_weights":[1.5801133E-3,5.9298463E-2,-2.562812E-1,-4.0801716E-1,1.0440813E-1,3.0173454E-1,-4.3923095E-1,-8.591448E-2,-1.709099E-2,1.5101126E-2,4.7217032E-1,1.7072196E-1,-2.0011258E-1,3.865679E-3,-5.6252813E-1,3.8707692E-2,-2.8097019E-2,2.3624025E-1,3.4040876E-2,-5.4863013E-2,9.669733E-3,-1.1968782E-1,4.8802894E-2,-4.5512836E-2,-1.6154857E-1],"categories":[],"categories_nodes":[],"categories_segments":[],"categories_sizes":[],"default_left":[0,0,0,0,0,0,0,0,0,0,0,0,0,0,0,0,0,0,0,0,0,0,0,0,0],"id":28,"left_children":[1,3,5,7,9,11,13,-1,-1,15,17,-1,19,21,23,-1,-1,-1,-1,-1,-1,-1,-1,-1,-1],"loss_changes":[2.4411798E0,2.8673809E0,3.1951964E0,4.672575E-2,4.03265E0,2.386474E0,1.2587233E0,0E0,0E0,2.8034282E0,4.9374313E0,0E0,1.0544494E-1,1.0138843E0,1.2946725E0,0E0,0E0,0E0,0E0,0E0,0E0,0E0,0E0,0E0,0E0],"parents":[2147483647,0,0,1,1,2,2,3,3,4,4,5,5,6,6,9,9,10,10,12,12,13,13,14,14],"right_children":[2,4,6,8,10,12,14,-1,-1,16,18,-1,20,22,24,-1,-1,-1,-1,-1,-1,-1,-1,-1,-1],"split_conditions":[5.4E1,5E0,6E0,4E0,3.1E1,3.448E3,5.62E3,-8.591448E-2,-1.709099E-2,9E1,1.5E1,1.7072196E-1,5E0,4E0,2.398E3,3.8707692E-2,-2.8097019E-2,2.3624025E-1,3.4040876E-2,-5.4863013E-2,9.669733E-3,-1.1968782E-1,4.8802894E-2,-4.5512836E-2,-1.6154857E-1],"split_indices":[9,1,1,1,9,8,3,0,0,11,1,0,1,0,8,0,0,0,0,0,0,0,0,0,0],"split_type":[0,0,0,0,0,0,0,0,0,0,0,0,0,0,0,0,0,0,0,0,0,0,0,0,0],"sum_hessian":[1.62E2,1.33E2,2.9E1,1.1E1,1.22E2,7E0,2.2E1,1E1,1E0,9.9E1,2.3E1,3E0,4E0,5E0,1.7E1,4.6E1,5.3E1,6E0,1.7E1,3E0,1E0,1E0,4E0,8E0,9E0],"tree_param":{"num_deleted":"0","num_feature":"12","num_nodes":"25","size_leaf_vector":"1"}},{"base_weights":[1.420419E-3,-1.1838683E-2,2.149395E-1,-3.9159834E-1,2.1152744E-2,-8.468706E-2,-6.42567E-1,-1.8719749E-1,8.858964E-2,-2.8440505E-2,7.880211E-3,-6.90208E-2,-1.5587765E-1,2.7784789E-2,-1.0783096E-1,3.661997E-1,1.1393314E-2],"categories":[],"categories_nodes":[],"categories_segments":[],"categories_sizes":[],"default_left":[0,0,0,0,0,0,0,0,0,0,0,0,0,0,0,0,0],"id":29,"left_children":[1,3,-1,5,7,9,11,13,15,-1,-1,-1,-1,-1,-1,-1,-1],"loss_changes":[2.3323257E0,2.0379512E0,0E0,9.4690907E-1,2.124158E0,5.556183E-2,1.592493E-2,4.3217916E0,6.1771307E0,0E0,0E0,0E0,0E0,0E0,0E0,0E0,0E0],"parents":[2147483647,0,0,1,1,3,3,4,4,5,5,6,6,7,7,8,8],"right_children":[2,4,-1,6,8,10,12,14,16,-1,-1,-1,-1,-1,-1,-1,-1],"split_conditions":[9.068E1,4E1,2.149395E-1,5.8E1,8.85E2,5.51E3,4E0,1.9E1,8.95E2,-2.8440505E-2,7.880211E-3,-6.90208E-2,-1.5587765E-1,2.7784789E-2,-1.0783096E-1,3.661997E-1,1.1393314E-2],"split_indices":[10,6,0,5,8,3,2,1,8,0,0,0,0,0,0,0,0],"split_type":[0,0,0,0,0,0,0,0,0,0,0,0,0,0,0,0,0],"sum_hessian":[1.62E2,1.61E2,1E0,1.2E1,1.49E2,6E0,6E0,3.6E1,1.13E2,4E0,2E0,3E0,3E0,1.9E1,1.7E1,1E0,1.12E2],"tree_param":{"num_deleted":"0","num_feature":"12","num_nodes":"17","size_leaf_vector":"1"}},{"base_weights":[2.7745166E-3,-1.7677832E-2,6.526043E-1,-4.99884E-1,1.4587099E-2,6.642828E-2,1.934456E-1,-5.6222004E-1,6.114006E-3,5.5057454E-1,-2.7630396E-2,-4.3177977E-2,-1.5922123E-1,2.559092E-1,2.3453403E-2,9.617794E-3,-8.718949E-2],"categories":[],"categories_nodes":[],"categories_segments":[],"categories_sizes":[],"default_left":[0,0,0,0,0,0,0,0,0,0,0,0,0,0,0,0,0],"id":30,"left_children":[1,3,5,7,9,-1,-1,11,-1,13,15,-1,-1,-1,-1,-1,-1],"loss_changes":[2.1778953E0,2.4810693E0,1.8286967E-1,3.4785104E-1,3.4094198E0,0E0,0E0,5.571449E-1,0E0,3.3245087E0,4.349415E0,0E0,0E0,0E0,0E0,0E0,0E0],"parents":[2147483647,0,0,1,1,2,2,3,3,4,4,7,7,9,9,10,10],"right_children":[2,4,6,8,10,-1,-1,12,-1,14,16,-1,-1,-1,-1,-1,-1],"split_conditions":[8.636E1,4.42E2,7E0,5.87E3,3E1,6.642828E-2,1.934456E-1,7.034E1,6.114006E-3,6.2E1,6.944E1,-4.3177977E-2,-1.5922123E-1,2.559092E-1,2.3453403E-2,9.617794E-3,-8.718949E-2],"split_indices":[10,8,0,3,11,0,0,10,0,6,7,0,0,0,0,0,0],"split_type":[0,0,0,0,0,0,0,0,0,0,0,0,0,0,0,0,0],"sum_hessian":[1.62E2,1.58E2,4E0,9E0,1.49E2,3E0,1E0,8E0,1E0,1E1,1.39E2,4E0,4E0,3E0,7E0,1.18E2,2.1E1],"tree_param":{"num_deleted":"0","num_feature":"12","num_nodes":"17","size_leaf_vector":"1"}},{"base_weights":[3.8476957E-3,-2.3497969E-2,4.7437328E-1,1.3424526E-2,-1.1338577E0,6.414727E-1,-7.364973E-2,-1.7696533E-2,5.719255E-1,-3.4200236E-1,-1.7975108E-1,1.3951276E-1,3.0492593E-2,4.8864367E-3,-2.6981354E-2,9.44428E-3,-4.927699E-2,2.7483878E-1,1.5094089E-2,5.5025104E-3,-5.9427835E-2],"categories":[],"categories_nodes":[],"categories_segments":[],"categories_sizes":[],"default_left":[0,0,0,0,0,0,0,0,0,0,0,0,0,0,0,0,0,0,0,0,0],"id":31,"left_children":[1,3,5,7,9,11,13,15,17,-1,19,-1,-1,-1,-1,-1,-1,-1,-1,-1,-1],"loss_changes":[2.1084406E0,6.369796E0,8.7141323E-1,2.6346736E0,2.4411855E0,8.565116E-2,2.1320691E-2,2.1494555E0,3.0826106E0,0E0,8.11659E-2,0E0,0E0,0E0,0E0,0E0,0E0,0E0,0E0,0E0,0E0],"parents":[2147483647,0,0,1,1,2,2,3,3,4,4,5,5,6,6,7,7,8,8,10,10],"right_children":[2,4,6,8,10,12,14,16,18,-1,20,-1,-1,-1,-1,-1,-1,-1,-1,-1,-1],"split_conditions":[7.448E1,8.4E1,9.3E1,8.1E1,5E0,4.6E1,9E0,7E0,7.052E1,-3.4200236E-1,8E0,1.3951276E-1,3.0492593E-2,4.8864367E-3,-2.6981354E-2,9.44428E-3,-4.927699E-2,2.7483878E-1,1.5094089E-2,5.5025104E-3,-5.9427835E-2],"split_indices":[7,6,6,6,4,9,0,4,7,0,0,0,0,0,0,0,0,0,0,0,0],"split_type":[0,0,0,0,0,0,0,0,0,0,0,0,0,0,0,0,0,0,0,0,0],"sum_hessian":[1.62E2,1.54E2,8E0,1.5E2,4E0,6E0,2E0,1.43E2,7E0,2E0,2E0,5E0,1E0,1E0,1E0,1.12E2,3.1E1,2E0,5E0,1E0,1E0],"tree_param":{"num_deleted":"0","num_feature":"12","num_nodes":"21","size_leaf_vector":"1"}},{"base_weights":[3.0908482E-3,5.1785603E-2,-2.1451542E-1,1.4511968E-1,-1.2406938E-1,2.4826142E-1,-3.6615452E-1,-3.9913824E-1,2.2001348E-1,-1.7887456E-2,-8.466646E-1,1.4054541E-1,-1.649634E-1,-5.13906E-1,-2.4882227E-2,-2.569902E-2,-1.2065168E-1,-6.1836954E-2,5.698204E-2,-2.3714704E-2,1.5018083E-1,-5.897363E-2,-2.0976916E-1,-2.449576E-3,-5.2538224E-2,-2.1606268E-2,-1.4932553E-1,6.998321E-2,-9.74319E-2],"categories":[],"categories_nodes":[],"categories_segments":[],"categories_sizes":[],"default_left":[0,0,0,0,0,0,0,0,0,0,0,0,0,0,0,0,0,0,0,0,0,0,0,0,0,0,0,0,0],"id":32,"left_children":[1,3,5,7,9,11,13,15,17,19,21,-1,23,25,27,-1,-1,-1,-1,-1,-1,-1,-1,-1,-1,-1,-1,-1,-1],"loss_changes":[1.7383031E0,2.217382E0,2.196154E0,3.6748323E0,3.5910027E0,1.6182961E0,1.1469531E0,5.301652E-1,2.766862E0,3.3401144E0,3.60106E-1,0E0,7.140528E-2,1.430634E0,1.5565506E0,0E0,0E0,0E0,0E0,0E0,0E0,0E0,0E0,0E0,0E0,0E0,0E0,0E0,0E0],"parents":[2147483647,0,0,1,1,2,2,3,3,4,4,5,5,6,6,7,7,8,8,9,9,10,10,12,12,13,13,14,14],"right_children":[2,4,6,8,10,12,14,16,18,20,22,-1,24,26,28,-1,-1,-1,-1,-1,-1,-1,-1,-1,-1,-1,-1,-1,-1],"split_conditions":[5.4E1,1.5E2,6E0,-3E1,6.3E1,3.448E3,7E0,-4.3E1,4.1E1,4E1,4.2E1,1.4054541E-1,5.56E3,5.09E1,9E0,-2.569902E-2,-1.2065168E-1,-6.1836954E-2,5.698204E-2,-2.3714704E-2,1.5018083E-1,-5.897363E-2,-2.0976916E-1,-2.449576E-3,-5.2538224E-2,-2.1606268E-2,-1.4932553E-1,6.998321E-2,-9.74319E-2],"split_indices":[9,11,1,9,6,8,4,9,6,9,5,0,3,7,4,0,0,0,0,0,0,0,0,0,0,0,0,0,0],"split_type":[0,0,0,0,0,0,0,0,0,0,0,0,0,0,0,0,0,0,0,0,0,0,0,0,0,0,0,0,0],"sum_hessian":[1.62E2,1.33E2,2.9E1,8.7E1,4.6E1,7E0,2.2E1,1E1,7.7E1,4.1E1,5E0,3E0,4E0,1.5E1,7E0,5E0,5E0,8E0,6.9E1,3.7E1,4E0,2E0,3E0,2E0,2E0,6E0,9E0,4E0,3E0],"tree_param":{"num_deleted":"0","num_feature":"12","num_nodes":"29","size_leaf_vector":"1"}},{"base_weights":[-1.9992056E-5,-1.7055385E-2,5.4170954E-1,7.2593116E-3,-3.800703E-1,1.360776E-1,-1.3004303E-3,-4.1474992E-1,3.713756E-2,-1.0318573E0,2.2643058E-1,-1.3210045E-1,-4.3014016E-2,-1.4107554E-2,3.848817E-2,-3.039996E-1,-3.995285E-2,6.633591E-2,-2.9981423E-2],"categories":[],"categories_nodes":[],"categories_segments":[],"categories_sizes":[],"default_left":[0,0,0,0,0,0,0,0,0,0,0,0,0,0,0,0,0,0,0],"id":33,"left_children":[1,3,5,7,9,-1,-1,11,13,15,17,-1,-1,-1,-1,-1,-1,-1,-1],"loss_changes":[1.5134969E0,1.4061881E0,3.8454962E-1,1.9067373E0,4.186738E0,0E0,0E0,3.4866357E-1,2.371423E0,1.7272506E0,2.8737602E-1,0E0,0E0,0E0,0E0,0E0,0E0,0E0,0E0],"parents":[2147483647,0,0,1,1,2,2,3,3,4,4,7,7,8,8,9,9,10,10],"right_children":[2,4,6,8,10,-1,-1,12,14,16,18,-1,-1,-1,-1,-1,-1,-1,-1],"split_conditions":[5.91E3,8.4E1,3.1E1,4.42E2,7.448E1,1.360776E-1,-1.3004303E-3,3E1,6.08E1,5E0,9E0,-1.3210045E-1,-4.3014016E-2,-1.4107554E-2,3.848817E-2,-3.039996E-1,-3.995285E-2,6.633591E-2,-2.9981423E-2],"split_indices":[3,6,1,8,7,0,0,11,10,4,0,0,0,0,0,0,0,0,0],"split_type":[0,0,0,0,0,0,0,0,0,0,0,0,0,0,0,0,0,0,0],"sum_hessian":[1.62E2,1.58E2,4E0,1.49E2,9E0,3E0,1E0,9E0,1.4E2,4E0,5E0,3E0,6E0,8.3E1,5.7E1,2E0,2E0,4E0,1E0],"tree_param":{"num_deleted":"0","num_feature":"12","num_nodes":"19","size_leaf_vector":"1"}},{"base_weights":[-2.0010201E-3,-3.9650348E-1,1.8242702E-2,-8.3234265E-2,-1.3779283E-1,1.12100676E-1,-7.705246E-2,7.6642516E-3,-2.4640692E-2,3.0567361E-2,5.6478107E-1,-4.0124682E-1,5.7474732E-2,-1.9905132E-3,1.3627486E-1,-4.8398305E-2,1.9968326E-1,-4.503892E-3,-1.3816866E-1,-2.2034405E-2,8.971136E-2],"categories":[],"categories_nodes":[],"categories_segments":[],"categories_sizes":[],"default_left":[0,0,0,0,0,0,0,0,0,0,0,0,0,0,0,0,0,0,0,0,0],"id":34,"left_children":[1,3,5,7,-1,9,11,-1,-1,13,15,17,19,-1,-1,-1,-1,-1,-1,-1,-1],"loss_changes":[1.3089837E0,6.756059E-1,1.4039345E0,2.9013697E-2,0E0,2.8985102E0,3.424872E0,0E0,0E0,1.7999855E0,4.439749E0,2.5070393E0,3.720982E0,0E0,0E0,0E0,0E0,0E0,0E0,0E0,0E0],"parents":[2147483647,0,0,1,1,2,2,3,3,5,5,6,6,9,9,10,10,11,11,12,12],"right_children":[2,4,6,8,-1,10,12,-1,-1,14,16,18,20,-1,-1,-1,-1,-1,-1,-1,-1],"split_conditions":[3.47E1,5.5E1,6E1,2E0,-1.3779283E-1,5.8E1,6.6E1,7.6642516E-3,-2.4640692E-2,5.864E1,3.2E1,6.3E1,1.45E3,-1.9905132E-3,1.3627486E-1,-4.8398305E-2,1.9968326E-1,-4.503892E-3,-1.3816866E-1,-2.2034405E-2,8.971136E-2],"split_indices":[7,5,6,2,0,6,6,0,0,7,5,6,8,0,0,0,0,0,0,0,0],"split_type":[0,0,0,0,0,0,0,0,0,0,0,0,0,0,0,0,0,0,0,0,0],"sum_hessian":[1.62E2,7E0,1.55E2,4E0,3E0,7.8E1,7.7E1,1E0,3E0,6.7E1,1.1E1,2.2E1,5.5E1,6.4E1,3E0,4E0,7E0,1E1,1.2E1,3.9E1,1.6E1],"tree_param":{"num_deleted":"0","num_feature":"12","num_nodes":"21","size_leaf_vector":"1"}},{"base_weights":[-1.2586417E-3,-3.6759502E-1,2.2537608E-2,-7.99482E-2,-7.828141E-3,6.8089396E-2,-1.8487719E-1,4.6364716E-3,3.2679185E-1,3.3348235E-1,-3.1206328E-1,1.8037325E-2,-3.5913296E-2,2.3980895E-1,3.0669251E-2,-1.895024E-2,1.1425739E-1,7.379874E-3,-8.220946E-2],"categories":[],"categories_nodes":[],"categories_segments":[],"categories_sizes":[],"default_left":[0,0,0,0,0,0,0,0,0,0,0,0,0,0,0,0,0,0,0],"id":35,"left_children":[1,3,5,-1,-1,7,9,11,13,15,17,-1,-1,-1,-1,-1,-1,-1,-1],"loss_changes":[1.4292262E0,8.993864E-2,1.4675978E0,0E0,0E0,2.083244E0,1.9500549E0,1.6393292E0,3.5983417E0,6.6514546E-1,8.0962706E-1,0E0,0E0,0E0,0E0,0E0,0E0,0E0,0E0],"parents":[2147483647,0,0,1,1,2,2,5,5,6,6,7,7,8,8,9,9,10,10],"right_children":[2,4,6,-1,-1,8,10,12,14,16,18,-1,-1,-1,-1,-1,-1,-1,-1],"split_conditions":[3E0,9E0,5.4E1,-7.99482E-2,-7.828141E-3,3.1E1,6E0,1.3E1,3.2E1,5E0,5.62E3,1.8037325E-2,-3.5913296E-2,2.3980895E-1,3.0669251E-2,-1.895024E-2,1.1425739E-1,7.379874E-3,-8.220946E-2],"split_indices":[1,4,9,0,0,9,1,9,9,0,3,0,0,0,0,0,0,0,0],"split_type":[0,0,0,0,0,0,0,0,0,0,0,0,0,0,0,0,0,0,0],"sum_hessian":[1.62E2,9E0,1.53E2,8E0,1E0,1.26E2,2.7E1,1.02E2,2.4E1,5E0,2.2E1,7E1,3.2E1,3E0,2.1E1,2E0,3E0,5E0,1.7E1],"tree_param":{"num_deleted":"0","num_feature":"12","num_nodes":"19","size_leaf_vector":"1"}},{"base_weights":[1.2980722E-4,-1.5752142E-2,5.0514984E-1,3.8262356E-2,-1.623555E-1,1.2397528E-1,4.6243668E-3,-1.3215408E-1,1.319364E-1,2.2002501E-2,-7.006699E-1,9.0812845E-3,-1.7849241E-1,2.3346296E-1,8.516277E-3,-7.733431E-2,6.139484E-2,-1.8417737E-1,1.5014993E-1],"categories":[],"categories_nodes":[],"categories_segments":[],"categories_sizes":[],"default_left":[0,0,0,0,0,0,0,0,0,0,0,0,0,0,0,0,0,0,0],"id":36,"left_children":[1,3,5,7,9,-1,-1,11,13,15,17,-1,-1,-1,-1,-1,-1,-1,-1],"loss_changes":[1.3153317E0,1.2652863E0,2.6217437E-1,1.8851767E0,4.282847E0,0E0,0E0,5.7105513E0,6.981529E0,3.9618957E0,4.207253E0,0E0,0E0,0E0,0E0,0E0,0E0,0E0,0E0],"parents":[2147483647,0,0,1,1,2,2,3,3,4,4,7,7,8,8,9,9,10,10],"right_children":[2,4,6,8,10,-1,-1,12,14,16,18,-1,-1,-1,-1,-1,-1,-1,-1],"split_conditions":[5.91E3,2.2E1,3.1E1,1.528E3,7.2E1,1.2397528E-1,4.6243668E-3,1.204E3,1.899E3,5.72E3,5.89E3,9.0812845E-3,-1.7849241E-1,2.3346296E-1,8.516277E-3,-7.733431E-2,6.139484E-2,-1.8417737E-1,1.5014993E-1],"split_indices":[3,1,1,8,5,0,0,8,8,3,3,0,0,0,0,0,0,0,0],"split_type":[0,0,0,0,0,0,0,0,0,0,0,0,0,0,0,0,0,0,0],"sum_hessian":[1.62E2,1.58E2,4E0,1.16E2,4.2E1,3E0,1E0,4.1E1,7.5E1,3.2E1,1E1,3.4E1,7E0,5E0,7E1,1.3E1,1.9E1,9E0,1E0],"tree_param":{"num_deleted":"0","num_feature":"12","num_nodes":"19","size_leaf_vector":"1"}},{"base_weights":[1.031442E-3,-2.542429E-1,2.6723279E-2,-4.15487E-1,5.6871098E-2,1.6699071E-1,-5.4765478E-2,-5.058744E-1,-3.595829E-2,5.6346323E-2,-4.4447325E-2,4.4497926E-2,7.881207E-1,-9.126542E-2,3.5357952E-1,-1.2800434E-1,-4.234433E-2,6.452036E-3,-1.7239524E-2,-2.7850484E-2,2.8134107E-3,2.6097521E-2,-9.310255E-2,2.828723E-1,4.7854677E-2,-6.3939035E-2,8.994945E-3,9.254589E-2,3.483963E-3],"categories":[],"categories_nodes":[],"categories_segments":[],"categories_sizes":[],"default_left":[0,0,0,0,0,0,0,0,0,0,0,0,0,0,0,0,0,0,0,0,0,0,0,0,0,0,0,0,0],"id":37,"left_children":[1,3,5,7,9,11,13,15,17,-1,19,21,23,25,27,-1,-1,-1,-1,-1,-1,-1,-1,-1,-1,-1,-1,-1,-1],"loss_changes":[1.0758243E0,7.761087E-1,1.7122478E0,3.248558E-1,1.492173E-1,4.1495466E0,1.4482033E0,1.8017197E-1,1.3062499E-2,0E0,2.9696178E-2,2.1219594E0,2.7549763E0,2.753053E0,2.8547382E-1,0E0,0E0,0E0,0E0,0E0,0E0,0E0,0E0,0E0,0E0,0E0,0E0,0E0,0E0],"parents":[2147483647,0,0,1,1,2,2,3,3,4,4,5,5,6,6,7,7,8,8,10,10,11,11,12,12,13,13,14,14],"right_children":[2,4,6,8,10,12,14,16,18,-1,20,22,24,26,28,-1,-1,-1,-1,-1,-1,-1,-1,-1,-1,-1,-1,-1,-1],"split_conditions":[2E0,5.77E3,6E0,7E1,5.79E3,5.756E1,5.9E3,5.288E1,1E1,5.6346323E-2,8E0,6E1,6.7E1,1.404E3,9.3E1,-1.2800434E-1,-4.234433E-2,6.452036E-3,-1.7239524E-2,-2.7850484E-2,2.8134107E-3,2.6097521E-2,-9.310255E-2,2.828723E-1,4.7854677E-2,-6.3939035E-2,8.994945E-3,9.254589E-2,3.483963E-3],"split_indices":[0,3,0,5,3,7,3,7,1,0,1,6,6,8,6,0,0,0,0,0,0,0,0,0,0,0,0,0,0],"split_type":[0,0,0,0,0,0,0,0,0,0,0,0,0,0,0,0,0,0,0,0,0,0,0,0,0,0,0,0,0],"sum_hessian":[1.62E2,1.4E1,1.48E2,9E0,5E0,5.4E1,9.4E1,7E0,2E0,1E0,4E0,4.6E1,8E0,8.7E1,7E0,4E0,3E0,1E0,1E0,1E0,3E0,4E1,6E0,3E0,5E0,3.2E1,5.5E1,5E0,2E0],"tree_param":{"num_deleted":"0","num_feature":"12","num_nodes":"29","size_leaf_vector":"1"}},{"base_weights":[1.7758498E-3,3.8105477E-2,-1.6055568E-1,1.5295585E-2,6.2354153E-1,-2.4606836E-1,2.2250645E-1,1.0590292E-1,-1.58205E-1,2.0665061E-1,-1.01530455E-1,-3.2234627E-1,4.699545E-2,5.894749E-1,-6.819074E-2,-6.1449833E-2,3.5410516E-2,-7.942748E-3,-1.4025258E-1,-9.754815E-2,-1.501977E-2,1.4549987E-1,1.754017E-2],"categories":[],"categories_nodes":[],"categories_segments":[],"categories_sizes":[],"default_left":[0,0,0,0,0,0,0,0,0,0,0,0,0,0,0,0,0,0,0,0,0,0,0],"id":38,"left_children":[1,3,5,7,9,11,13,15,17,-1,-1,19,-1,21,-1,-1,-1,-1,-1,-1,-1,-1,-1],"loss_changes":[9.674014E-1,1.7798628E0,1.0374517E0,2.0604095E0,2.8418493E0,9.930726E-1,1.4416163E0,2.5824232E0,2.8677926E0,0E0,0E0,8.6302495E-1,0E0,2.1322596E-1,0E0,0E0,0E0,0E0,0E0,0E0,0E0,0E0,0E0],"parents":[2147483647,0,0,1,1,2,2,3,3,4,4,5,5,6,6,7,7,8,8,11,11,13,13],"right_children":[2,4,6,8,10,12,14,16,18,-1,-1,20,-1,22,-1,-1,-1,-1,-1,-1,-1,-1,-1],"split_conditions":[5.4E1,4.9E1,5E0,1.5E2,5.86E3,7.6E1,1.7E1,-2.2E1,6.2E1,2.0665061E-1,-1.01530455E-1,1.4E2,4.699545E-2,5.82E3,-6.819074E-2,-6.1449833E-2,3.5410516E-2,-7.942748E-3,-1.4025258E-1,-9.754815E-2,-1.501977E-2,1.4549987E-1,1.754017E-2],"split_indices":[9,9,2,11,3,9,1,9,6,0,0,11,0,3,0,0,0,0,0,0,0,0,0],"split_type":[0,0,0,0,0,0,0,0,0,0,0,0,0,0,0,0,0,0,0,0,0,0,0],"sum_hessian":[1.62E2,1.33E2,2.9E1,1.29E2,4E0,2.4E1,5E0,8.5E1,4.4E1,3E0,1E0,2.1E1,3E0,3E0,2E0,1.2E1,7.3E1,3.7E1,7E0,1.2E1,9E0,2E0,1E0],"tree_param":{"num_deleted":"0","num_feature":"12","num_nodes":"23","size_leaf_vector":"1"}},{"base_weights":[1.1762804E-3,-2.81476E-1,2.3483194E-2,-9.3626946E-2,-1.0514785E-1,1.3566254E-1,-4.7177073E-2,-1.5965648E-1,1.2316704E-2,4.345004E-2,5.340944E-1,-4.1862008E-1,-7.7565606E-3,-3.515066E-2,-9.5269205E-3,4.1389467E-5,3.2568616E-3,2.4936873E-2,-7.7692285E-2,2.7030793E-1,4.045377E-2,-2.7757809E-2,-1.4674233E-1,-3.3170875E-2,2.5391964E-2],"categories":[],"categories_nodes":[],"categories_segments":[],"categories_sizes":[],"default_left":[0,0,0,0,0,0,0,0,0,0,0,0,0,0,0,0,0,0,0,0,0,0,0,0,0],"id":39,"left_children":[1,3,5,7,-1,9,11,13,15,17,19,21,23,-1,-1,-1,-1,-1,-1,-1,-1,-1,-1,-1,-1],"loss_changes":[1.0343411E0,5.013922E-1,1.2112467E0,5.7929724E-2,0E0,2.1444771E0,1.3731456E0,6.440282E-4,1.8881686E-4,1.7676508E0,2.7103672E0,6.9172025E-1,1.8527162E0,0E0,0E0,0E0,0E0,0E0,0E0,0E0,0E0,0E0,0E0,0E0,0E0],"parents":[2147483647,0,0,1,1,2,2,3,3,5,5,6,6,7,7,8,8,9,9,10,10,11,11,12,12],"right_children":[2,4,6,8,-1,10,12,14,16,18,20,22,24,-1,-1,-1,-1,-1,-1,-1,-1,-1,-1,-1,-1],"split_conditions":[5.54E3,5.7E1,6E0,4.7E1,-1.0514785E-1,5.774E1,5.66E3,4E0,4E0,6E1,5.9E1,5.3E1,1.45E3,-3.515066E-2,-9.5269205E-3,4.1389467E-5,3.2568616E-3,2.4936873E-2,-7.7692285E-2,2.7030793E-1,4.045377E-2,-2.7757809E-2,-1.4674233E-1,-3.3170875E-2,2.5391964E-2],"split_indices":[3,5,0,5,0,7,3,0,0,6,7,6,8,0,0,0,0,0,0,0,0,0,0,0,0],"split_type":[0,0,0,0,0,0,0,0,0,0,0,0,0,0,0,0,0,0,0,0,0,0,0,0,0],"sum_hessian":[1.62E2,1.1E1,1.51E2,7E0,4E0,5.8E1,9.3E1,4E0,3E0,4.8E1,1E1,8E0,8.5E1,3E0,1E0,1E0,2E0,4.1E1,7E0,2E0,8E0,5E0,3E0,3.9E1,4.6E1],"tree_param":{"num_deleted":"0","num_feature":"12","num_nodes":"25","size_leaf_vector":"1"}},{"base_weights":[5.067126E-4,-1.2378156E-1,3.6712695E-2,-2.0983155E-1,9.8684914E-2,2.0566995E-1,-3.773726E-2,4.875037E-2,-3.0277276E-1,3.7199578E-1,-3.3836896E-3,4.756743E-1,-1.0358064E-1,5.533373E-1,-7.950762E-2,-2.6120553E-2,2.6060376E-2,-1.0520114E-1,-3.390593E-2,1.4037943E-2,9.7560786E-2,-2.2661908E-2,3.2470204E-2,-3.76709E-2,1.389911E-1,-1.0648675E-1,6.712612E-2,1.7798439E-1,-1.5977604E-2,-1.00407235E-1,9.855392E-4],"categories":[],"categories_nodes":[],"categories_segments":[],"categories_sizes":[],"default_left":[0,0,0,0,0,0,0,0,0,0,0,0,0,0,0,0,0,0,0,0,0,0,0,0,0,0,0,0,0,0,0],"id":40,"left_children":[1,3,5,7,9,11,13,15,17,19,21,23,25,27,29,-1,-1,-1,-1,-1,-1,-1,-1,-1,-1,-1,-1,-1,-1,-1,-1],"loss_changes":[7.38041E-1,7.290071E-1,1.6052768E0,6.6364884E-1,3.0811974E-1,3.3057315E0,2.2413504E0,1.3402991E-1,5.0571156E-1,7.061601E-2,1.8236269E-1,3.1886873E0,3.757486E0,1.3498975E0,2.9992857E0,0E0,0E0,0E0,0E0,0E0,0E0,0E0,0E0,0E0,0E0,0E0,0E0,0E0,0E0,0E0,0E0],"parents":[2147483647,0,0,1,1,2,2,3,3,4,4,5,5,6,6,7,7,8,8,9,9,10,10,11,11,12,12,13,13,14,14],"right_children":[2,4,6,8,10,12,14,16,18,20,22,24,26,28,30,-1,-1,-1,-1,-1,-1,-1,-1,-1,-1,-1,-1,-1,-1,-1,-1],"split_conditions":[4.5E1,6.818E1,1.2E1,4.892E1,5.6E1,1E1,3E1,5.54E3,5.74E3,1.1E1,2.3E1,1.1E1,5.79E3,5.86E3,2.2E1,-2.6120553E-2,2.6060376E-2,-1.0520114E-1,-3.390593E-2,1.4037943E-2,9.7560786E-2,-2.2661908E-2,3.2470204E-2,-3.76709E-2,1.389911E-1,-1.0648675E-1,6.712612E-2,1.7798439E-1,-1.5977604E-2,-1.00407235E-1,9.855392E-4],"split_indices":[5,10,9,10,6,0,11,3,3,1,1,1,3,3,9,0,0,0,0,0,0,0,0,0,0,0,0,0,0,0,0],"split_type":[0,0,0,0,0,0,0,0,0,0,0,0,0,0,0,0,0,0,0,0,0,0,0,0,0,0,0,0,0,0,0],"sum_hessian":[1.62E2,3.6E1,1.26E2,2.6E1,1E1,3.8E1,8.8E1,7E0,1.9E1,2E0,8E0,2E1,1.8E1,5E0,8.3E1,2E0,5E0,6E0,1.3E1,1E0,1E0,5E0,3E0,5E0,1.5E1,9E0,9E0,3E0,2E0,1.3E1,7E1],"tree_param":{"num_deleted":"0","num_feature":"12","num_nodes":"31","size_leaf_vector":"1"}},{"base_weights":[1.0604669E-3,-2.3540701E-1,1.9721976E-2,-5.50871E-1,-6.9044456E-2,3.332852E-1,-4.7070207E-3,-2.5763322E-2,-1.297234E-1,-5.1714707E-2,2.2045782E-2,-5.5825423E-2,5.0039095E-1,3.734631E-2,-2.1302533E-1,1.5904112E-2,-1.6218822E-2,1.9006802E-1,-9.927273E-3,-4.667619E-3,2.8512368E-1,-1.24245755E-1,3.603288E-2],"categories":[],"categories_nodes":[],"categories_segments":[],"categories_sizes":[],"default_left":[0,0,0,0,0,0,0,0,0,0,0,0,0,0,0,0,0,0,0,0,0,0,0],"id":41,"left_children":[1,3,5,7,9,11,13,-1,-1,-1,15,-1,17,19,21,-1,-1,-1,-1,-1,-1,-1,-1],"loss_changes":[7.239356E-1,5.917422E-1,1.1658942E0,8.1463695E-2,1.6107869E-1,1.2653865E0,1.2519437E0,0E0,0E0,0E0,4.7944248E-2,0E0,2.27453E0,1.00586E1,3.9639568E0,0E0,0E0,0E0,0E0,0E0,0E0,0E0,0E0],"parents":[2147483647,0,0,1,1,2,2,3,3,4,4,5,5,6,6,10,10,12,12,13,13,14,14],"right_children":[2,4,6,8,10,12,14,-1,-1,-1,16,-1,18,20,22,-1,-1,-1,-1,-1,-1,-1,-1],"split_conditions":[4.42E2,3E1,3E1,2E0,2E0,8E0,6.944E1,-2.5763322E-2,-1.297234E-1,-5.1714707E-2,3.77E2,-5.5825423E-2,1.6E1,6.764E1,5.89E3,1.5904112E-2,-1.6218822E-2,1.9006802E-1,-9.927273E-3,-4.667619E-3,2.8512368E-1,-1.24245755E-1,3.603288E-2],"split_indices":[8,11,11,0,2,1,7,0,0,0,8,0,1,7,3,0,0,0,0,0,0,0,0],"split_type":[0,0,0,0,0,0,0,0,0,0,0,0,0,0,0,0,0,0,0,0,0,0,0],"sum_hessian":[1.62E2,1.1E1,1.51E2,3E0,8E0,1E1,1.41E2,1E0,2E0,2E0,6E0,2E0,8E0,1.18E2,2.3E1,4E0,2E0,4E0,4E0,1.14E2,4E0,1.1E1,1.2E1],"tree_param":{"num_deleted":"0","num_feature":"12","num_nodes":"23","size_leaf_vector":"1"}},{"base_weights":[1.517276E-3,3.0690564E-2,-1.2884066E-1,-4.515285E-3,2.7325526E-1,1.2335232E-1,-2.1095818E-1,1.44663425E-2,-5.4910827E-1,6.2192434E-1,-3.136898E-1,8.23617E-2,-1.3208309E-1,5.863924E-2,-2.4720138E-1,1.9906847E-2,-2.4014672E-2,4.0545463E-4,-1.4669918E-1,1.772246E-1,-1.23908045E-2,-1.11930065E-1,1.1620732E-1,1.2204488E-3,-4.5248143E-2,-7.0847645E-2,-3.1214356E-3],"categories":[],"categories_nodes":[],"categories_segments":[],"categories_sizes":[],"default_left":[0,0,0,0,0,0,0,0,0,0,0,0,0,0,0,0,0,0,0,0,0,0,0,0,0,0,0],"id":42,"left_children":[1,3,5,7,9,11,13,15,17,19,21,-1,23,-1,25,-1,-1,-1,-1,-1,-1,-1,-1,-1,-1,-1,-1],"loss_changes":[6.238382E-1,1.145553E0,6.473061E-1,1.2277405E0,3.6741343E0,6.438483E-1,4.927385E-1,1.3281275E0,4.0797722E-1,2.042376E0,1.8656486E0,0E0,6.643658E-2,0E0,5.3983176E-1,0E0,0E0,0E0,0E0,0E0,0E0,0E0,0E0,0E0,0E0,0E0,0E0],"parents":[2147483647,0,0,1,1,2,2,3,3,4,4,5,5,6,6,7,7,8,8,9,9,10,10,12,12,14,14],"right_children":[2,4,6,8,10,12,14,16,18,20,22,-1,24,-1,26,-1,-1,-1,-1,-1,-1,-1,-1,-1,-1,-1,-1],"split_conditions":[5.4E1,3.9E1,6E0,3.5E1,7E0,3.448E3,4.1E1,6.764E1,4E0,8.2E1,5.79E3,8.23617E-2,5.56E3,5.863924E-2,7E0,1.9906847E-2,-2.4014672E-2,4.0545463E-4,-1.4669918E-1,1.772246E-1,-1.23908045E-2,-1.11930065E-1,1.1620732E-1,1.2204488E-3,-4.5248143E-2,-7.0847645E-2,-3.1214356E-3],"split_indices":[9,9,1,9,4,8,6,10,0,6,3,0,3,0,4,0,0,0,0,0,0,0,0,0,0,0,0],"split_type":[0,0,0,0,0,0,0,0,0,0,0,0,0,0,0,0,0,0,0,0,0,0,0,0,0,0,0],"sum_hessian":[1.62E2,1.33E2,2.9E1,1.17E2,1.6E1,7E0,2.2E1,1.14E2,3E0,1E1,6E0,3E0,4E0,1E0,2.1E1,7E1,4.4E1,1E0,2E0,7E0,3E0,5E0,1E0,2E0,2E0,1.4E1,7E0],"tree_param":{"num_deleted":"0","num_feature":"12","num_nodes":"27","size_leaf_vector":"1"}},{"base_weights":[1.4697306E-3,-1.4486884E-2,2.761148E-1,7.786569E-3,-6.842478E-1,3.5289E-1,4.934311E-3,-2.8506532E-2,1.9184406E-1,-2.1228822E-1,-7.897186E-2,4.373269E-1,3.6046125E-2,2.289009E-3,-8.087158E-4,8.635872E-4,-1.18365705E-1,1.8525729E-1,-7.616167E-3,7.197571E-3,-3.088913E-2,2.4431229E-2,1.0033303E-1],"categories":[],"categories_nodes":[],"categories_segments":[],"categories_sizes":[],"default_left":[0,0,0,0,0,0,0,0,0,0,0,0,0,0,0,0,0,0,0,0,0,0,0],"id":43,"left_children":[1,3,5,7,9,11,13,15,17,-1,19,21,-1,-1,-1,-1,-1,-1,-1,-1,-1,-1,-1],"loss_changes":[7.183321E-1,2.3176007E0,1.8563819E-1,1.0141513E0,1.0577059E0,2.3232043E-2,2.2163693E-4,2.3508801E0,4.2569385E0,0E0,3.1587504E-2,1.9828618E-2,0E0,0E0,0E0,0E0,0E0,0E0,0E0,0E0,0E0,0E0,0E0],"parents":[2147483647,0,0,1,1,2,2,3,3,4,4,5,5,6,6,7,7,8,8,10,10,11,11],"right_children":[2,4,6,8,10,12,14,16,18,-1,20,22,-1,-1,-1,-1,-1,-1,-1,-1,-1,-1,-1],"split_conditions":[7.448E1,8.4E1,9.3E1,6.764E1,5E0,4E0,9E0,6.71E1,6.944E1,-2.1228822E-1,8E0,7E0,3.6046125E-2,2.289009E-3,-8.087158E-4,8.635872E-4,-1.18365705E-1,1.8525729E-1,-7.616167E-3,7.197571E-3,-3.088913E-2,2.4431229E-2,1.0033303E-1],"split_indices":[7,6,6,7,4,2,0,7,7,0,0,1,0,0,0,0,0,0,0,0,0,0,0],"split_type":[0,0,0,0,0,0,0,0,0,0,0,0,0,0,0,0,0,0,0,0,0,0,0],"sum_hessian":[1.62E2,1.54E2,8E0,1.5E2,4E0,6E0,2E0,1.26E2,2.4E1,2E0,2E0,3E0,3E0,1E0,1E0,1.2E2,6E0,5E0,1.9E1,1E0,1E0,1E0,2E0],"tree_param":{"num_deleted":"0","num_feature":"12","num_nodes":"23","size_leaf_vector":"1"}},{"base_weights":[1.0925407E-3,-1.3424647E-1,3.1384166E-2,-2.5397366E-1,2.4123192E-3,1.18642434E-1,-4.771321E-2,2.5940608E-2,-3.4944016E-1,2.8860098E-1,-9.3184926E-2,3.4029216E-1,-5.5619935E-3,1.3025405E-2,-4.6758205E-1,-1.8911136E-2,5.0792575E-2,1.5763855E-2,-8.8594794E-2,1.6569218E-2,9.0586565E-2,2.3443986E-2,-3.5268866E-2,2.1143735E-3,1.9143926E-1,-1.14912964E-1,1.7371813E-2,3.321321E-2,-3.217097E-2,-2.1335518E-2,-1.2605093E-1],"categories":[],"categories_nodes":[],"categories_segments":[],"categories_sizes":[],"default_left":[0,0,0,0,0,0,0,0,0,0,0,0,0,0,0,0,0,0,0,0,0,0,0,0,0,0,0,0,0,0,0],"id":44,"left_children":[1,3,5,7,9,11,13,15,17,19,21,23,25,27,29,-1,-1,-1,-1,-1,-1,-1,-1,-1,-1,-1,-1,-1,-1,-1,-1],"loss_changes":[6.724543E-1,4.9146587E-1,9.305154E-1,4.3662357E-1,4.3727598E-1,1.7638049E0,1.8167503E0,1.6139281E-1,5.155959E-1,9.772462E-2,2.3063675E-1,4.668214E0,2.2585952E0,1.7031896E0,4.611497E-1,0E0,0E0,0E0,0E0,0E0,0E0,0E0,0E0,0E0,0E0,0E0,0E0,0E0,0E0,0E0,0E0],"parents":[2147483647,0,0,1,1,2,2,3,3,4,4,5,5,6,6,7,7,8,8,9,9,10,10,11,11,12,12,13,13,14,14],"right_children":[2,4,6,8,10,12,14,16,18,20,22,24,26,28,30,-1,-1,-1,-1,-1,-1,-1,-1,-1,-1,-1,-1,-1,-1,-1,-1],"split_conditions":[-2E1,1.5E1,1E2,2E0,1.6E1,1.2E1,7.4E1,1.4E1,4.9E1,1.2E1,4.856E1,6E1,2E0,5.36E1,4E0,-1.8911136E-2,5.0792575E-2,1.5763855E-2,-8.8594794E-2,1.6569218E-2,9.0586565E-2,2.3443986E-2,-3.5268866E-2,2.1143735E-3,1.9143926E-1,-1.14912964E-1,1.7371813E-2,3.321321E-2,-3.217097E-2,-2.1335518E-2,-1.2605093E-1],"split_indices":[9,1,11,0,1,9,5,1,6,0,10,11,2,10,2,0,0,0,0,0,0,0,0,0,0,0,0,0,0,0,0],"split_type":[0,0,0,0,0,0,0,0,0,0,0,0,0,0,0,0,0,0,0,0,0,0,0,0,0,0,0,0,0,0,0],"sum_hessian":[1.62E2,2.9E1,1.33E2,1.5E1,1.4E1,6.3E1,7E1,4E0,1.1E1,3E0,1.1E1,2.2E1,4.1E1,6.2E1,8E0,3E0,1E0,2E0,9E0,2E0,1E0,3E0,8E0,1.5E1,7E0,5E0,3.6E1,3.3E1,2.9E1,3E0,5E0],"tree_param":{"num_deleted":"0","num_feature":"12","num_nodes":"31","size_leaf_vector":"1"}},{"base_weights":[8.9883513E-4,-2.2828358E-1,1.898627E-2,-6.726006E-2,-8.8052906E-2,1.6318983E-1,-1.9307116E-2,-2.8157173E-2,-1.9287148E-2,-6.695417E-2,3.2418066E-1,-4.6470594E-1,3.8971943E-3,-7.906237E-3,8.193302E-3,1.0844374E-2,-5.9183087E-2,9.1700114E-2,-2.8723031E-2,-9.054152E-3,-1.3262117E-1,1.7289725E-1,-2.2206919E-3],"categories":[],"categories_nodes":[],"categories_segments":[],"categories_sizes":[],"default_left":[0,0,0,0,0,0,0,0,0,0,0,0,0,0,0,0,0,0,0,0,0,0,0],"id":45,"left_children":[1,3,5,7,-1,9,11,-1,13,15,17,19,21,-1,-1,-1,-1,-1,-1,-1,-1,-1,-1],"loss_changes":[6.800218E-1,3.7999475E-1,8.4250116E-1,2.5502611E-2,0E0,1.2073398E0,1.252367E0,0E0,8.938117E-3,4.044697E-1,1.2596991E0,4.6927607E-1,1.5070891E0,0E0,0E0,0E0,0E0,0E0,0E0,0E0,0E0,0E0,0E0],"parents":[2147483647,0,0,1,1,2,2,3,3,5,5,6,6,8,8,9,9,10,10,11,11,12,12],"right_children":[2,4,6,8,-1,10,12,-1,14,16,18,20,22,-1,-1,-1,-1,-1,-1,-1,-1,-1,-1],"split_conditions":[5.54E3,5.7E1,5.09E1,4.5E1,-8.8052906E-2,4.172E1,5.69E3,-2.8157173E-2,5E0,6.4E1,2.3E1,4E0,4.532E1,-7.906237E-3,8.193302E-3,1.0844374E-2,-5.9183087E-2,9.1700114E-2,-2.8723031E-2,-9.054152E-3,-1.3262117E-1,1.7289725E-1,-2.2206919E-3],"split_indices":[3,5,10,5,0,10,3,0,0,9,1,0,7,0,0,0,0,0,0,0,0,0,0],"split_type":[0,0,0,0,0,0,0,0,0,0,0,0,0,0,0,0,0,0,0,0,0,0,0],"sum_hessian":[1.62E2,1.1E1,1.51E2,7E0,4E0,3.1E1,1.2E2,2E0,5E0,1.3E1,1.8E1,5E0,1.15E2,4E0,1E0,9E0,4E0,1.4E1,4E0,2E0,3E0,1E0,1.14E2],"tree_param":{"num_deleted":"0","num_feature":"12","num_nodes":"23","size_leaf_vector":"1"}},{"base_weights":[2.7558554E-4,4.3259323E-2,-8.491538E-2,-2.500154E-1,7.540844E-2,-2.3059998E-2,-3.9850286E-1,-4.3969672E-2,-4.143919E-1,-1.5433496E-1,1.2155578E-1,1.22813E-1,-1.9440718E-1,-9.573024E-2,-3.5730924E-2,1.2004519E-2,-1.5354529E-2,-1.2065873E-1,-4.878457E-3,4.173688E-2,-4.940617E-2,7.9045E-3,1.1204665E-1,-3.1439226E-2,4.293511E-2,-5.470642E-2,7.957891E-2],"categories":[],"categories_nodes":[],"categories_segments":[],"categories_sizes":[],"default_left":[0,0,0,0,0,0,0,0,0,0,0,0,0,0,0,0,0,0,0,0,0,0,0,0,0,0,0],"id":46,"left_children":[1,3,5,7,9,11,13,15,17,19,21,23,25,-1,-1,-1,-1,-1,-1,-1,-1,-1,-1,-1,-1,-1,-1],"loss_changes":[6.0055095E-1,1.0465623E0,1.0576494E0,3.5433924E-1,1.068363E0,1.1986374E0,7.307112E-2,2.5075626E-2,4.2731392E-1,6.236083E-1,2.964709E0,7.025273E-1,1.1398847E0,0E0,0E0,0E0,0E0,0E0,0E0,0E0,0E0,0E0,0E0,0E0,0E0,0E0,0E0],"parents":[2147483647,0,0,1,1,2,2,3,3,4,4,5,5,6,6,7,7,8,8,9,9,10,10,11,11,12,12],"right_children":[2,4,6,8,10,12,14,16,18,20,22,24,26,-1,-1,-1,-1,-1,-1,-1,-1,-1,-1,-1,-1,-1,-1],"split_conditions":[1.5E2,-3E1,6.9E1,-4.3E1,4.388E1,1.6E1,2.5E2,1.1E1,9E1,2E0,3.72E3,5.55E3,4.9E1,-9.573024E-2,-3.5730924E-2,1.2004519E-2,-1.5354529E-2,-1.2065873E-1,-4.878457E-3,4.173688E-2,-4.940617E-2,7.9045E-3,1.1204665E-1,-3.1439226E-2,4.293511E-2,-5.470642E-2,7.957891E-2],"split_indices":[11,9,5,9,7,1,11,1,11,2,8,3,9,0,0,0,0,0,0,0,0,0,0,0,0,0,0],"split_type":[0,0,0,0,0,0,0,0,0,0,0,0,0,0,0,0,0,0,0,0,0,0,0,0,0,0,0],"sum_hessian":[1.62E2,1.08E2,5.4E1,1E1,9.8E1,4.6E1,8E0,5E0,5E0,1.6E1,8.2E1,2.5E1,2.1E1,5E0,3E0,1E0,4E0,3E0,2E0,3E0,1.3E1,7E1,1.2E1,6E0,1.9E1,1.9E1,2E0],"tree_param":{"num_deleted":"0","num_feature":"12","num_nodes":"27","size_leaf_vector":"1"}},{"base_weights":[-4.6461052E-4,-2.0995766E-2,1.5624498E-1,-6.4342637E-3,-2.1178523E-1,1.1171621E-1,7.605362E-2,-2.1858402E-2,3.51964E-1,-6.419477E-2,2.8557914E-1,1.4644501E-3,-7.241615E-2,-2.5774512E-2,1.24920085E-1,-4.5245267E-2,4.9690725E-3,6.671696E-2,-2.4547576E-4],"categories":[],"categories_nodes":[],"categories_segments":[],"categories_sizes":[],"default_left":[0,0,0,0,0,0,0,0,0,0,0,0,0,0,0,0,0,0,0],"id":47,"left_children":[1,3,5,7,-1,-1,9,11,13,15,17,-1,-1,-1,-1,-1,-1,-1,-1],"loss_changes":[5.277214E-1,2.1846914E0,5.705315E-1,8.037231E-1,0E0,0E0,5.178881E-1,1.3826307E0,8.670551E-1,1.643211E-1,9.678781E-2,0E0,0E0,0E0,0E0,0E0,0E0,0E0,0E0],"parents":[2147483647,0,0,1,1,2,2,3,3,6,6,7,7,8,8,9,9,10,10],"right_children":[2,4,6,8,-1,-1,10,12,14,16,18,-1,-1,-1,-1,-1,-1,-1,-1],"split_conditions":[7.106E1,8.4E1,7.142E1,8.1E1,-2.1178523E-1,1.1171621E-1,2.1E1,7.5E1,7.1E1,7.808E1,3.1E1,1.4644501E-3,-7.241615E-2,-2.5774512E-2,1.24920085E-1,-4.5245267E-2,4.9690725E-3,6.671696E-2,-2.4547576E-4],"split_indices":[7,6,7,6,0,0,1,6,5,10,1,0,0,0,0,0,0,0,0],"split_type":[0,0,0,0,0,0,0,0,0,0,0,0,0,0,0,0,0,0,0],"sum_hessian":[1.62E2,1.44E2,1.8E1,1.43E2,1E0,2E0,1.6E1,1.38E2,5E0,1E1,6E0,1.28E2,1E1,2E0,3E0,3E0,7E0,5E0,1E0],"tree_param":{"num_deleted":"0","num_feature":"12","num_nodes":"19","size_leaf_vector":"1"}},{"base_weights":[-6.5196806E-4,3.0612746E-2,-9.145299E-2,-1.6316748E-1,5.9303127E-2,-2.512432E-1,9.687841E-2,-3.0612275E-1,-1.7966403E-2,-2.8188515E-1,7.8791626E-2,-4.2205766E-1,-2.6531328E-2,-7.088731E-2,3.573879E-1,-2.480097E-2,-1.1366353E-1,-1.7402707E-2,1.0934802E-2,-6.526329E-2,-5.9728622E-3,3.3008806E-2,-5.1307213E-3,-1.5426342E-2,-1.2559898E-1,-4.2478643E-2,3.2750487E-2,-4.252788E-2,2.5986005E-2,7.883E-3,1.0805773E-1],"categories":[],"categories_nodes":[],"categories_segments":[],"categories_sizes":[],"default_left":[0,0,0,0,0,0,0,0,0,0,0,0,0,0,0,0,0,0,0,0,0,0,0,0,0,0,0,0,0,0,0],"id":48,"left_children":[1,3,5,7,9,11,13,15,17,19,21,23,25,27,29,-1,-1,-1,-1,-1,-1,-1,-1,-1,-1,-1,-1,-1,-1,-1,-1],"loss_changes":[4.655351E-1,6.8795097E-1,1.2882677E0,3.2661623E-1,7.3367953E-1,8.716352E-1,8.994255E-1,3.1152892E-1,4.989788E-2,5.744049E-2,9.2311627E-1,8.749919E-1,4.238114E-1,3.976898E-1,4.4396436E-1,0E0,0E0,0E0,0E0,0E0,0E0,0E0,0E0,0E0,0E0,0E0,0E0,0E0,0E0,0E0,0E0],"parents":[2147483647,0,0,1,1,2,2,3,3,4,4,5,5,6,6,7,7,8,8,9,9,10,10,11,11,12,12,13,13,14,14],"right_children":[2,4,6,8,10,12,14,16,18,20,22,24,26,28,30,-1,-1,-1,-1,-1,-1,-1,-1,-1,-1,-1,-1,-1,-1,-1,-1],"split_conditions":[2E2,-2E1,2.5E2,1.5E1,2E0,5.76E3,4E0,2.667E3,5.79E3,7E1,6.764E1,5E1,8E0,4E0,3E1,-2.480097E-2,-1.1366353E-1,-1.7402707E-2,1.0934802E-2,-6.526329E-2,-5.9728622E-3,3.3008806E-2,-5.1307213E-3,-1.5426342E-2,-1.2559898E-1,-4.2478643E-2,3.2750487E-2,-4.252788E-2,2.5986005E-2,7.883E-3,1.0805773E-1],"split_indices":[11,9,11,1,0,3,0,8,3,5,10,6,1,2,9,0,0,0,0,0,0,0,0,0,0,0,0,0,0,0,0],"split_type":[0,0,0,0,0,0,0,0,0,0,0,0,0,0,0,0,0,0,0,0,0,0,0,0,0,0,0,0,0,0,0],"sum_hessian":[1.62E2,1.21E2,4.1E1,1.5E1,1.06E2,2.2E1,1.9E1,7E0,8E0,5E0,1.01E2,1.2E1,1E1,1.2E1,7E0,5E0,2E0,4E0,4E0,4E0,1E0,5.5E1,4.6E1,5E0,7E0,5E0,5E0,7E0,5E0,3E0,4E0],"tree_param":{"num_deleted":"0","num_feature":"12","num_nodes":"31","size_leaf_vector":"1"}},{"base_weights":[-1.9917297E-3,-5.5248857E-2,4.8753053E-2,2.9770941E-3,-3.5556546E-1,2.1975826E-1,-2.7431492E-2,-3.4417026E-2,3.951192E-1,-5.0894433E-1,6.506913E-2,5.801798E-1,-5.181397E-3,-4.4557682E-1,2.8312823E-2,9.329349E-3,-4.491975E-2,2.0640565E-2,1.3052693E-1,-1.2735683E-1,8.84463E-3,-2.333816E-3,2.348725E-1,1.5013123E-2,-8.093786E-2,-1.0834717E-1,1.3137722E-2,-8.683939E-3,8.7447144E-2],"categories":[],"categories_nodes":[],"categories_segments":[],"categories_sizes":[],"default_left":[0,0,0,0,0,0,0,0,0,0,0,0,0,0,0,0,0,0,0,0,0,0,0,0,0,0,0,0,0],"id":49,"left_children":[1,3,5,7,9,11,13,15,17,19,-1,21,23,25,27,-1,-1,-1,-1,-1,-1,-1,-1,-1,-1,-1,-1,-1,-1],"loss_changes":[4.4320455E-1,1.3999562E0,1.1003765E0,1.0107379E0,1.523269E0,2.1109068E0,1.3878596E0,9.817381E-1,3.836841E-1,8.060458E-1,0E0,3.5303679E0,5.7538664E-1,3.7972546E-1,1.5736374E0,0E0,0E0,0E0,0E0,0E0,0E0,0E0,0E0,0E0,0E0,0E0,0E0,0E0,0E0],"parents":[2147483647,0,0,1,1,2,2,3,3,4,4,5,5,6,6,7,7,8,8,9,9,11,11,12,12,13,13,14,14],"right_children":[2,4,6,8,10,12,14,16,18,20,-1,22,24,26,28,-1,-1,-1,-1,-1,-1,-1,-1,-1,-1,-1,-1,-1,-1],"split_conditions":[5.99E1,5.684E1,6.764E1,5.576E1,5.77E3,9E1,6.962E1,6.6E1,1.8E1,8E0,6.506913E-2,5E1,6.9E1,1.2E1,1.45E3,9.329349E-3,-4.491975E-2,2.0640565E-2,1.3052693E-1,-1.2735683E-1,8.84463E-3,-2.333816E-3,2.348725E-1,1.5013123E-2,-8.093786E-2,-1.0834717E-1,1.3137722E-2,-8.683939E-3,8.7447144E-2],"split_indices":[10,10,10,10,3,11,10,5,1,4,0,11,5,0,8,0,0,0,0,0,0,0,0,0,0,0,0,0,0],"split_type":[0,0,0,0,0,0,0,0,0,0,0,0,0,0,0,0,0,0,0,0,0,0,0,0,0,0,0,0,0],"sum_hessian":[1.62E2,7.9E1,8.3E1,6.7E1,1.2E1,2.5E1,5.8E1,6.2E1,5E0,1E1,2E0,9E0,1.6E1,6E0,5.2E1,4.4E1,1.8E1,3E0,2E0,8E0,2E0,5E0,4E0,1.4E1,2E0,5E0,1E0,4.5E1,7E0],"tree_param":{"num_deleted":"0","num_feature":"12","num_nodes":"29","size_leaf_vector":"1"}}]},"name":"gbtree"},"learner_model_param":{"base_score":"1.1226913E1","boost_from_average":"1","num_class":"0","num_feature":"12","num_target":"1"},"objective":{"name":"reg:squarederror","reg_loss_param":{"scale_pos_weight":"1"}}},"version":[3,0,2]}